#pragma once

float conv1_weights[32][3][3][3] =
{
	{
		{
			{-0.062775f,-0.001982f,0.062000f,},
			{-0.051680f,0.085951f,0.106810f,},
			{-0.014397f,0.208344f,0.190063f,},
		},
		{
			{-0.043573f,-0.109276f,0.090214f,},
			{-0.047994f,-0.149323f,-0.229407f,},
			{-0.126419f,-0.235355f,-0.235768f,},
		},
		{
			{-0.064352f,0.194676f,0.051460f,},
			{0.148615f,0.186860f,-0.054809f,},
			{0.126093f,0.074357f,-0.111060f,},
		},
	},
	{
		{
			{-0.126169f,-0.167761f,-0.073433f,},
			{0.049857f,-0.002213f,0.134389f,},
			{-0.112469f,0.061931f,0.138033f,},
		},
		{
			{0.054643f,-0.226978f,0.037294f,},
			{0.089124f,-0.058471f,-0.030285f,},
			{0.140938f,0.119157f,0.057439f,},
		},
		{
			{-0.001687f,0.143558f,0.157906f,},
			{0.053413f,-0.204204f,-0.177821f,},
			{-0.064749f,0.018525f,-0.025754f,},
		},
	},
	{
		{
			{0.132013f,-0.078241f,-0.022952f,},
			{-0.096100f,-0.043102f,0.000641f,},
			{0.156317f,0.078210f,0.028599f,},
		},
		{
			{-0.114847f,-0.153607f,-0.001486f,},
			{-0.055597f,-0.086757f,-0.139602f,},
			{0.088428f,-0.060858f,0.003587f,},
		},
		{
			{0.022487f,-0.121705f,0.108091f,},
			{-0.044965f,-0.104941f,-0.071896f,},
			{0.088895f,-0.021863f,-0.018641f,},
		},
	},
	{
		{
			{0.093927f,0.106115f,0.016706f,},
			{0.035856f,-0.146160f,-0.044959f,},
			{-0.002848f,-0.059298f,-0.023678f,},
		},
		{
			{-0.072832f,-0.063702f,-0.015319f,},
			{0.022385f,-0.189104f,-0.062526f,},
			{-0.058096f,-0.000033f,0.097462f,},
		},
		{
			{0.116767f,0.078541f,-0.022213f,},
			{0.102798f,0.084896f,0.198550f,},
			{0.114262f,0.124679f,-0.071722f,},
		},
	},
	{
		{
			{0.045296f,0.200628f,0.115551f,},
			{-0.138899f,0.069402f,-0.142375f,},
			{0.098713f,-0.152788f,-0.045240f,},
		},
		{
			{0.081512f,0.203087f,0.058445f,},
			{-0.203824f,-0.194381f,-0.077766f,},
			{-0.088601f,-0.067174f,-0.077755f,},
		},
		{
			{0.079322f,-0.024809f,-0.060547f,},
			{-0.067177f,-0.082328f,0.031077f,},
			{0.107013f,0.171110f,0.171644f,},
		},
	},
	{
		{
			{-0.024319f,-0.043723f,0.060878f,},
			{-0.051419f,-0.063841f,0.004575f,},
			{-0.028644f,-0.083092f,-0.118745f,},
		},
		{
			{-0.038723f,0.080519f,0.015781f,},
			{0.036049f,-0.095962f,0.107659f,},
			{0.083140f,-0.145196f,-0.112999f,},
		},
		{
			{0.159746f,-0.050501f,0.089178f,},
			{-0.102164f,-0.063831f,-0.004048f,},
			{-0.117394f,0.062800f,0.025105f,},
		},
	},
	{
		{
			{-0.024205f,0.039510f,0.059421f,},
			{-0.114833f,-0.005683f,0.049994f,},
			{-0.277189f,0.152207f,0.136105f,},
		},
		{
			{0.062507f,0.110613f,-0.203410f,},
			{-0.114534f,0.220475f,0.044145f,},
			{-0.077325f,-0.040223f,-0.022814f,},
		},
		{
			{-0.189303f,-0.118749f,-0.060100f,},
			{-0.014432f,0.289569f,0.141420f,},
			{-0.109667f,0.013252f,0.038844f,},
		},
	},
	{
		{
			{0.070184f,0.192831f,0.031533f,},
			{0.147642f,0.076272f,-0.139212f,},
			{-0.075011f,-0.133552f,-0.152222f,},
		},
		{
			{-0.150968f,0.080888f,-0.110462f,},
			{-0.081723f,0.212899f,0.037346f,},
			{-0.099096f,0.199888f,-0.084264f,},
		},
		{
			{-0.064939f,-0.136093f,-0.033526f,},
			{0.088362f,-0.069964f,-0.034383f,},
			{0.026330f,0.157357f,0.032837f,},
		},
	},
	{
		{
			{0.072751f,0.014555f,-0.089606f,},
			{0.103240f,0.049187f,-0.168876f,},
			{-0.037013f,-0.145407f,0.000304f,},
		},
		{
			{-0.043540f,0.023302f,-0.129810f,},
			{-0.015860f,0.010041f,-0.134756f,},
			{0.011104f,0.130961f,-0.093163f,},
		},
		{
			{-0.026541f,0.000371f,-0.183533f,},
			{-0.019262f,0.320258f,0.091171f,},
			{-0.027319f,0.245781f,0.211458f,},
		},
	},
	{
		{
			{-0.162510f,0.078213f,0.039588f,},
			{0.001945f,-0.077085f,-0.099133f,},
			{0.053767f,0.039699f,0.096593f,},
		},
		{
			{0.089331f,-0.016312f,-0.027863f,},
			{-0.081527f,0.007198f,-0.008261f,},
			{-0.126608f,0.099782f,0.103978f,},
		},
		{
			{0.151771f,0.011481f,-0.102333f,},
			{-0.005875f,-0.010467f,-0.104413f,},
			{-0.043823f,0.088693f,-0.000849f,},
		},
	},
	{
		{
			{0.062441f,0.080329f,0.086305f,},
			{-0.036087f,0.056522f,0.042216f,},
			{-0.107293f,-0.160398f,-0.028124f,},
		},
		{
			{-0.002923f,-0.004688f,-0.048496f,},
			{0.044774f,0.101041f,0.008888f,},
			{0.009960f,0.049872f,-0.168753f,},
		},
		{
			{0.078290f,-0.036292f,0.143137f,},
			{0.059800f,-0.062109f,0.122142f,},
			{-0.042693f,-0.165712f,-0.082078f,},
		},
	},
	{
		{
			{-0.115099f,-0.047204f,0.194550f,},
			{-0.066399f,-0.108919f,0.126141f,},
			{0.173053f,-0.112173f,-0.139397f,},
		},
		{
			{-0.250780f,0.031455f,0.150478f,},
			{0.193907f,-0.048137f,-0.076689f,},
			{0.006440f,0.052627f,0.120415f,},
		},
		{
			{0.013611f,0.089031f,-0.028508f,},
			{0.329558f,-0.121230f,-0.219760f,},
			{0.222380f,-0.212239f,-0.164791f,},
		},
	},
	{
		{
			{-0.040745f,0.178219f,0.076329f,},
			{-0.054436f,-0.078054f,-0.034943f,},
			{-0.088216f,-0.076443f,-0.027140f,},
		},
		{
			{-0.033521f,-0.101450f,-0.043745f,},
			{0.167888f,-0.086584f,-0.059055f,},
			{0.151580f,0.137532f,-0.086896f,},
		},
		{
			{-0.087436f,0.066019f,0.033322f,},
			{0.089946f,-0.016617f,-0.125855f,},
			{0.061418f,-0.120326f,-0.119448f,},
		},
	},
	{
		{
			{-0.161135f,0.052568f,-0.254929f,},
			{-0.083076f,0.318074f,0.028918f,},
			{-0.209044f,0.211338f,0.119719f,},
		},
		{
			{0.051370f,0.055725f,-0.041178f,},
			{0.133693f,0.064991f,0.005933f,},
			{-0.144294f,-0.162678f,-0.010784f,},
		},
		{
			{0.072550f,-0.074859f,0.097316f,},
			{-0.077152f,0.028907f,-0.030020f,},
			{0.036539f,-0.092787f,0.048380f,},
		},
	},
	{
		{
			{-0.126794f,0.045679f,-0.178453f,},
			{-0.111593f,0.065172f,-0.096992f,},
			{-0.133992f,-0.023120f,0.097524f,},
		},
		{
			{0.010175f,0.130842f,-0.035928f,},
			{-0.041317f,0.084442f,0.122287f,},
			{0.090083f,0.144556f,0.170480f,},
		},
		{
			{0.042964f,0.053911f,-0.014131f,},
			{-0.067405f,-0.069210f,-0.003775f,},
			{-0.014042f,0.054240f,-0.040424f,},
		},
	},
	{
		{
			{-0.039939f,-0.143298f,0.019562f,},
			{0.146010f,-0.126591f,0.163731f,},
			{-0.149888f,-0.114315f,0.181355f,},
		},
		{
			{0.084257f,0.021093f,0.069450f,},
			{0.128073f,0.068693f,-0.078724f,},
			{-0.014633f,-0.074258f,-0.116857f,},
		},
		{
			{0.096687f,-0.236055f,-0.061475f,},
			{-0.019011f,0.055241f,0.140439f,},
			{0.026212f,0.033365f,-0.053958f,},
		},
	},
	{
		{
			{-0.068031f,-0.017173f,0.078827f,},
			{0.130506f,-0.104912f,0.065056f,},
			{-0.005035f,0.049734f,0.081980f,},
		},
		{
			{0.043860f,-0.081889f,0.115170f,},
			{0.034096f,0.043080f,-0.071972f,},
			{-0.086202f,-0.075129f,-0.038183f,},
		},
		{
			{-0.034202f,-0.014982f,-0.081488f,},
			{0.028103f,0.059814f,-0.127088f,},
			{-0.090809f,-0.022455f,0.026610f,},
		},
	},
	{
		{
			{0.095759f,-0.080639f,0.049488f,},
			{-0.083193f,0.029450f,0.125176f,},
			{0.102000f,0.005894f,0.081443f,},
		},
		{
			{0.092580f,0.019740f,-0.079386f,},
			{-0.054453f,0.017260f,0.026474f,},
			{-0.158285f,-0.116891f,0.045294f,},
		},
		{
			{0.120283f,-0.157585f,-0.095950f,},
			{-0.044103f,-0.063519f,0.027549f,},
			{0.105509f,-0.121425f,0.150634f,},
		},
	},
	{
		{
			{0.064444f,-0.248008f,-0.024438f,},
			{0.087840f,0.063725f,0.016830f,},
			{-0.037784f,-0.006360f,0.140820f,},
		},
		{
			{0.021989f,0.033955f,0.138740f,},
			{-0.035270f,-0.046164f,0.087595f,},
			{-0.043527f,-0.173369f,0.045071f,},
		},
		{
			{0.050896f,0.206124f,0.296264f,},
			{-0.075385f,-0.133926f,-0.202471f,},
			{0.146857f,-0.197197f,-0.180291f,},
		},
	},
	{
		{
			{-0.077933f,0.005802f,0.192335f,},
			{-0.005721f,-0.120707f,0.030299f,},
			{0.239750f,-0.008425f,-0.205396f,},
		},
		{
			{0.046613f,-0.115647f,-0.132064f,},
			{0.040620f,-0.071343f,0.116323f,},
			{-0.009137f,0.127524f,-0.101541f,},
		},
		{
			{-0.107206f,-0.099200f,-0.023287f,},
			{-0.246358f,0.102514f,0.232607f,},
			{-0.176347f,0.121150f,0.241375f,},
		},
	},
	{
		{
			{0.060826f,0.153121f,-0.030720f,},
			{0.024536f,-0.064958f,-0.074163f,},
			{0.000627f,-0.176037f,-0.081270f,},
		},
		{
			{0.030650f,0.101520f,-0.128538f,},
			{0.249901f,-0.000517f,-0.203066f,},
			{0.225285f,0.006505f,-0.020982f,},
		},
		{
			{0.104915f,0.084947f,-0.021109f,},
			{0.063934f,0.065281f,-0.145635f,},
			{0.145030f,-0.202259f,-0.188377f,},
		},
	},
	{
		{
			{0.084260f,-0.157757f,-0.157419f,},
			{0.052812f,0.246952f,0.239452f,},
			{-0.160337f,-0.063163f,0.134303f,},
		},
		{
			{0.214885f,-0.212649f,-0.256577f,},
			{-0.079129f,-0.046495f,-0.017156f,},
			{0.033964f,0.057867f,-0.027585f,},
		},
		{
			{0.232911f,-0.199254f,-0.134957f,},
			{0.047305f,0.111041f,0.036713f,},
			{0.052873f,-0.075189f,0.042707f,},
		},
	},
	{
		{
			{-0.023587f,0.020302f,0.074430f,},
			{-0.310757f,0.059511f,0.235988f,},
			{-0.326552f,-0.024412f,0.165177f,},
		},
		{
			{-0.044759f,-0.191147f,-0.046100f,},
			{-0.233780f,0.244810f,0.160545f,},
			{-0.016386f,0.269280f,0.109499f,},
		},
		{
			{0.158564f,0.050734f,0.047049f,},
			{0.068287f,-0.241110f,-0.318631f,},
			{0.232851f,-0.133220f,-0.001326f,},
		},
	},
	{
		{
			{0.067203f,-0.137531f,-0.077573f,},
			{0.066360f,-0.055063f,0.015685f,},
			{0.098878f,-0.175402f,-0.196118f,},
		},
		{
			{0.090245f,-0.032749f,0.071685f,},
			{-0.045606f,0.005433f,-0.044088f,},
			{-0.072893f,0.000514f,-0.136802f,},
		},
		{
			{-0.043065f,0.059645f,0.128986f,},
			{-0.021531f,-0.058728f,-0.082638f,},
			{0.115207f,0.099237f,0.174644f,},
		},
	},
	{
		{
			{-0.014156f,0.077791f,-0.140149f,},
			{-0.150345f,-0.134256f,-0.158618f,},
			{0.050707f,-0.063486f,-0.022729f,},
		},
		{
			{0.061066f,0.098084f,0.038429f,},
			{-0.159964f,-0.116981f,-0.040421f,},
			{0.102486f,-0.127609f,0.046846f,},
		},
		{
			{0.025186f,-0.017277f,-0.103330f,},
			{-0.052176f,0.022256f,-0.022739f,},
			{-0.075054f,0.004455f,-0.141305f,},
		},
	},
	{
		{
			{-0.008363f,0.084959f,0.048742f,},
			{-0.054978f,0.011252f,-0.162199f,},
			{0.065258f,0.134195f,-0.150036f,},
		},
		{
			{0.158821f,0.201186f,0.103858f,},
			{-0.020487f,0.037931f,-0.020107f,},
			{-0.113491f,-0.066577f,-0.059028f,},
		},
		{
			{0.087416f,-0.005013f,-0.136971f,},
			{0.205179f,0.041392f,-0.219640f,},
			{0.052784f,-0.046611f,-0.182294f,},
		},
	},
	{
		{
			{0.013402f,0.100751f,0.087715f,},
			{0.054519f,-0.144923f,-0.039509f,},
			{-0.005778f,-0.017650f,-0.111804f,},
		},
		{
			{-0.224428f,0.009647f,0.081562f,},
			{0.079175f,0.078552f,0.084701f,},
			{0.014690f,-0.149442f,0.089513f,},
		},
		{
			{0.111449f,0.046524f,0.144888f,},
			{-0.116409f,0.048066f,-0.040734f,},
			{-0.098801f,-0.065318f,-0.020858f,},
		},
	},
	{
		{
			{-0.125661f,-0.012971f,0.155045f,},
			{-0.119715f,0.064186f,-0.093818f,},
			{0.086435f,0.070542f,0.024904f,},
		},
		{
			{0.191909f,-0.030931f,-0.134853f,},
			{0.186053f,-0.200251f,-0.191012f,},
			{0.071546f,0.094743f,-0.060314f,},
		},
		{
			{-0.035657f,0.017438f,0.349116f,},
			{-0.051749f,-0.089201f,-0.090465f,},
			{0.175857f,-0.118108f,-0.132935f,},
		},
	},
	{
		{
			{-0.070550f,-0.199343f,0.072970f,},
			{-0.035291f,0.144951f,-0.078842f,},
			{0.110970f,0.171689f,0.089872f,},
		},
		{
			{0.077773f,0.110866f,-0.033261f,},
			{0.143501f,-0.043736f,-0.120915f,},
			{-0.058324f,-0.028466f,-0.088788f,},
		},
		{
			{0.056963f,0.097739f,0.160935f,},
			{0.005010f,-0.176550f,-0.132935f,},
			{-0.061017f,-0.149690f,0.022577f,},
		},
	},
	{
		{
			{0.090088f,0.064365f,-0.255579f,},
			{-0.061849f,0.143362f,-0.126577f,},
			{0.052688f,0.159703f,0.008731f,},
		},
		{
			{-0.133546f,0.001551f,-0.073469f,},
			{-0.106000f,-0.009636f,0.053610f,},
			{0.033065f,0.088451f,0.075811f,},
		},
		{
			{0.171187f,0.044001f,0.097939f,},
			{-0.064680f,-0.169309f,-0.135946f,},
			{-0.091703f,0.056927f,0.067099f,},
		},
	},
	{
		{
			{0.096259f,0.071191f,0.017005f,},
			{-0.005600f,0.027800f,0.015390f,},
			{0.006745f,-0.186889f,-0.077231f,},
		},
		{
			{0.049993f,-0.154432f,0.045012f,},
			{0.161220f,0.025440f,-0.064639f,},
			{0.111017f,-0.116652f,0.098459f,},
		},
		{
			{0.061661f,0.167454f,-0.026035f,},
			{-0.128174f,-0.091248f,0.168355f,},
			{-0.176217f,-0.166121f,0.073561f,},
		},
	},
	{
		{
			{-0.017710f,-0.030516f,-0.086092f,},
			{0.099467f,-0.137947f,-0.053827f,},
			{-0.040513f,-0.080867f,-0.073990f,},
		},
		{
			{-0.056984f,-0.070094f,0.066487f,},
			{0.164060f,-0.033969f,-0.026946f,},
			{0.041942f,0.170681f,0.081962f,},
		},
		{
			{-0.060812f,0.040568f,-0.021293f,},
			{-0.031252f,0.017248f,0.065298f,},
			{-0.116147f,-0.014141f,0.128932f,},
		},
	},
};
float conv1_biases[32] =
{ 0.034772f,-0.004477f,0.134078f,-0.103024f,0.025176f,0.083330f,0.000517f,-0.000140f,-0.001208f,-0.000615f,0.004914f,-0.002403f,-0.001281f,0.005059f,-0.052065f,-0.001254f,0.021245f,-0.034355f,-0.007049f,0.001278f,0.010118f,0.002797f,-0.005264f,0.124744f,-0.042848f,-0.017915f,-0.003657f,0.001539f,-0.021948f,-0.000436f,-0.008541f,0.046564f, };
float rdb1_conv1_weights[32][32][3][3] =
{
	{
		{
			{0.191507f,-0.155521f,-0.056327f,},
			{0.142990f,-0.321421f,-0.175212f,},
			{0.056045f,-0.135042f,0.037304f,},
		},
		{
			{-0.079253f,-0.018615f,-0.015431f,},
			{0.149879f,-0.114362f,-0.250247f,},
			{-0.010969f,-0.071920f,0.128650f,},
		},
		{
			{0.052925f,-0.027924f,-0.054708f,},
			{0.112006f,0.055231f,-0.148059f,},
			{0.019972f,0.040023f,-0.046446f,},
		},
		{
			{-0.003400f,-0.014692f,0.081933f,},
			{-0.115399f,-0.173536f,0.149704f,},
			{-0.057018f,-0.093257f,0.085002f,},
		},
		{
			{-0.108321f,0.036217f,0.195480f,},
			{-0.172410f,-0.046302f,0.186870f,},
			{-0.047911f,-0.085855f,-0.090303f,},
		},
		{
			{0.015947f,0.037487f,0.026306f,},
			{0.034693f,0.042264f,0.013842f,},
			{0.036364f,0.014252f,-0.010269f,},
		},
		{
			{0.031169f,-0.070813f,-0.053018f,},
			{-0.026186f,-0.105592f,0.221683f,},
			{0.123842f,-0.124648f,0.025264f,},
		},
		{
			{-0.039214f,-0.162091f,0.092704f,},
			{-0.050022f,-0.123558f,0.148623f,},
			{0.248571f,0.095605f,-0.225948f,},
		},
		{
			{-0.191203f,0.016095f,0.308964f,},
			{-0.432623f,-0.212723f,0.534051f,},
			{-0.123600f,-0.083803f,0.254270f,},
		},
		{
			{-0.065962f,0.008535f,0.062761f,},
			{-0.025501f,-0.034956f,0.031491f,},
			{-0.015861f,-0.116138f,-0.035676f,},
		},
		{
			{0.025215f,0.009564f,-0.061019f,},
			{0.112733f,0.096087f,-0.151582f,},
			{0.034146f,0.108721f,-0.129451f,},
		},
		{
			{-0.089861f,-0.052920f,0.084090f,},
			{0.138502f,-0.264102f,-0.492798f,},
			{0.211591f,-0.129333f,-0.227451f,},
		},
		{
			{-0.026855f,-0.024841f,0.024795f,},
			{0.075203f,-0.011828f,-0.033523f,},
			{0.069741f,0.014976f,-0.030124f,},
		},
		{
			{0.110163f,0.064436f,-0.411638f,},
			{0.224166f,0.230657f,-0.481420f,},
			{-0.177098f,0.170998f,-0.029551f,},
		},
		{
			{-0.065511f,0.051911f,0.161494f,},
			{-0.175171f,-0.080478f,0.217143f,},
			{-0.137574f,-0.080718f,0.196601f,},
		},
		{
			{-0.154479f,-0.086248f,0.208611f,},
			{-0.098928f,-0.149276f,0.078346f,},
			{0.034685f,-0.047130f,0.053993f,},
		},
		{
			{0.029344f,-0.003594f,-0.032918f,},
			{0.127165f,0.012381f,-0.019466f,},
			{0.059942f,0.057994f,-0.000258f,},
		},
		{
			{0.103260f,0.011010f,-0.141288f,},
			{0.258351f,0.126192f,-0.271609f,},
			{0.155896f,0.108760f,-0.260320f,},
		},
		{
			{0.198249f,0.060446f,-0.387998f,},
			{0.428737f,0.231628f,-0.519878f,},
			{-0.135581f,0.083223f,0.108220f,},
		},
		{
			{0.056547f,0.114633f,0.168567f,},
			{-0.320463f,0.186017f,0.512317f,},
			{0.079109f,-0.080203f,-0.254912f,},
		},
		{
			{-0.165177f,-0.158901f,0.032625f,},
			{-0.020342f,-0.164990f,-0.092589f,},
			{0.037983f,-0.072311f,-0.030086f,},
		},
		{
			{0.091648f,-0.150575f,-0.206049f,},
			{0.255585f,-0.190286f,-0.317486f,},
			{0.278518f,0.045960f,-0.360072f,},
		},
		{
			{-0.152111f,-0.163938f,-0.002063f,},
			{0.215330f,-0.333633f,-0.517454f,},
			{0.264686f,-0.087582f,-0.194960f,},
		},
		{
			{-0.064553f,0.050342f,0.064716f,},
			{-0.133256f,0.051877f,0.094944f,},
			{-0.140246f,0.052053f,0.035583f,},
		},
		{
			{0.031812f,-0.025503f,-0.047367f,},
			{-0.029919f,-0.022703f,-0.047561f,},
			{0.008723f,0.023777f,-0.016886f,},
		},
		{
			{-0.015881f,-0.083648f,-0.177096f,},
			{0.142206f,-0.112628f,-0.313128f,},
			{0.087348f,-0.103914f,-0.256292f,},
		},
		{
			{0.025762f,0.101005f,0.097791f,},
			{-0.169303f,0.111878f,0.196962f,},
			{-0.126391f,-0.106808f,0.252221f,},
		},
		{
			{0.092812f,0.019319f,-0.163117f,},
			{0.312102f,-0.005399f,-0.505422f,},
			{0.044732f,0.150610f,-0.149529f,},
		},
		{
			{0.180691f,0.034973f,-0.298159f,},
			{0.402227f,0.198381f,-0.421922f,},
			{-0.011536f,0.009551f,-0.106524f,},
		},
		{
			{0.135877f,0.064354f,-0.173078f,},
			{0.145707f,0.222500f,-0.196062f,},
			{-0.125429f,0.145810f,-0.014552f,},
		},
		{
			{0.061176f,0.167375f,-0.197737f,},
			{0.090726f,0.249420f,-0.085661f,},
			{0.072099f,0.065119f,-0.044054f,},
		},
		{
			{-0.113884f,0.096321f,0.088651f,},
			{-0.184486f,0.006292f,0.237106f,},
			{-0.079840f,-0.029782f,0.169406f,},
		},
	},
	{
		{
			{-0.210177f,0.005827f,-0.162992f,},
			{-0.445074f,-0.232127f,0.287507f,},
			{-0.414794f,0.661243f,0.152227f,},
		},
		{
			{-0.171901f,0.010422f,-0.039408f,},
			{0.178833f,-0.197031f,0.035836f,},
			{0.061194f,0.225261f,-0.128186f,},
		},
		{
			{-0.083881f,0.024368f,0.056413f,},
			{0.012798f,-0.118538f,0.033111f,},
			{0.064705f,0.041915f,0.030498f,},
		},
		{
			{-0.057915f,-0.131866f,-0.204492f,},
			{-0.120289f,0.269414f,0.270874f,},
			{-0.163243f,-0.021771f,0.164046f,},
		},
		{
			{-0.007585f,0.101360f,-0.075541f,},
			{-0.137004f,0.208202f,0.125676f,},
			{0.018449f,0.197965f,0.399117f,},
		},
		{
			{-0.033780f,-0.012265f,0.029774f,},
			{-0.097689f,-0.085156f,-0.115604f,},
			{0.090141f,0.144325f,0.190033f,},
		},
		{
			{0.137534f,-0.052456f,0.002303f,},
			{-0.040777f,0.166637f,-0.085577f,},
			{-0.046426f,-0.141008f,-0.263468f,},
		},
		{
			{0.056695f,0.088127f,0.130030f,},
			{-0.141182f,0.050620f,0.030030f,},
			{0.239559f,-0.350923f,-0.078689f,},
		},
		{
			{0.033185f,0.014469f,-0.276823f,},
			{-0.207678f,0.658280f,0.135184f,},
			{-0.259055f,-0.204401f,-0.125675f,},
		},
		{
			{-0.015051f,0.017054f,-0.012466f,},
			{0.093521f,0.093619f,-0.025553f,},
			{0.048524f,-0.277569f,-0.016952f,},
		},
		{
			{0.056972f,-0.020468f,0.059394f,},
			{0.036044f,-0.321966f,-0.153697f,},
			{0.033804f,0.177961f,0.027735f,},
		},
		{
			{-0.246188f,-0.007873f,-0.044732f,},
			{-0.014354f,-0.768839f,0.548979f,},
			{0.255678f,0.090804f,0.108271f,},
		},
		{
			{-0.062076f,-0.011134f,-0.016807f,},
			{-0.042642f,-0.168614f,0.004364f,},
			{0.015857f,0.098099f,-0.053843f,},
		},
		{
			{-0.152627f,0.070605f,0.174205f,},
			{0.092003f,-0.191655f,0.020058f,},
			{-0.113351f,0.210019f,-0.136428f,},
		},
		{
			{-0.127264f,-0.096526f,-0.057839f,},
			{0.130655f,0.240482f,0.096570f,},
			{-0.016272f,-0.130297f,-0.072261f,},
		},
		{
			{-0.074012f,0.018624f,-0.152002f,},
			{-0.203749f,-0.068750f,0.005952f,},
			{0.129521f,-0.148257f,0.144813f,},
		},
		{
			{-0.069640f,-0.042128f,-0.018539f,},
			{-0.079295f,-0.160142f,-0.110639f,},
			{0.037738f,-0.010187f,0.063133f,},
		},
		{
			{0.023025f,0.078300f,-0.041607f,},
			{0.152555f,-0.008449f,0.083467f,},
			{0.040565f,-0.284286f,0.008629f,},
		},
		{
			{-0.118755f,-0.007184f,0.186487f,},
			{0.314810f,-0.625521f,-0.116906f,},
			{0.010976f,0.445107f,0.164528f,},
		},
		{
			{0.162988f,-0.063725f,-0.021376f,},
			{-0.085205f,0.709564f,-0.240961f,},
			{-0.004992f,-0.188508f,-0.007686f,},
		},
		{
			{0.009784f,0.015370f,-0.035983f,},
			{-0.044985f,-0.279912f,0.076861f,},
			{0.008248f,0.159008f,0.010549f,},
		},
		{
			{0.044882f,0.210583f,-0.148321f,},
			{0.068755f,-0.048243f,-0.058363f,},
			{-0.140602f,-0.425896f,0.047793f,},
		},
		{
			{-0.196198f,0.100255f,-0.029273f,},
			{0.172154f,-0.515193f,0.281550f,},
			{0.399892f,-0.269057f,-0.042626f,},
		},
		{
			{0.023425f,0.030396f,0.120011f,},
			{-0.061308f,-0.082832f,-0.020902f,},
			{0.048762f,0.211896f,0.152782f,},
		},
		{
			{-0.078082f,-0.042999f,0.013735f,},
			{-0.070210f,-0.058959f,-0.021229f,},
			{0.038722f,0.030711f,0.083024f,},
		},
		{
			{0.005204f,-0.028872f,0.049384f,},
			{-0.063176f,-0.376344f,0.150797f,},
			{0.190487f,0.079552f,0.249307f,},
		},
		{
			{0.037336f,-0.069346f,-0.003168f,},
			{-0.053616f,0.122279f,-0.170188f,},
			{0.013821f,0.121472f,0.118082f,},
		},
		{
			{-0.026826f,-0.027933f,-0.145054f,},
			{0.234498f,-0.259431f,0.155618f,},
			{-0.046036f,0.662813f,-0.140841f,},
		},
		{
			{-0.060705f,-0.061609f,0.131455f,},
			{0.415639f,-0.379649f,-0.134081f,},
			{0.082110f,0.449380f,0.160293f,},
		},
		{
			{-0.033366f,0.127251f,0.038340f,},
			{0.245208f,0.079143f,0.100677f,},
			{-0.055603f,-0.150331f,-0.091382f,},
		},
		{
			{0.055156f,-0.110963f,0.064313f,},
			{0.080913f,-0.042510f,-0.390547f,},
			{0.064662f,0.198124f,0.061400f,},
		},
		{
			{0.045267f,-0.021074f,0.074089f,},
			{-0.011914f,0.078601f,-0.111690f,},
			{-0.008714f,-0.013589f,-0.112718f,},
		},
	},
	{
		{
			{-0.148360f,-0.149531f,-0.034519f,},
			{-0.131895f,-0.017063f,0.117762f,},
			{-0.000144f,-0.018550f,0.020705f,},
		},
		{
			{0.533493f,0.037914f,-0.195801f,},
			{-0.249707f,-0.699349f,-0.216039f,},
			{-0.150728f,0.124947f,0.282656f,},
		},
		{
			{-0.184598f,-0.085047f,-0.021479f,},
			{-0.098567f,0.037801f,0.072810f,},
			{-0.017592f,0.073799f,0.088785f,},
		},
		{
			{-0.080911f,-0.054691f,0.082824f,},
			{0.041583f,0.034399f,0.148212f,},
			{0.006217f,-0.015853f,-0.012321f,},
		},
		{
			{-0.450296f,-0.201692f,0.092182f,},
			{0.182776f,0.512562f,0.455857f,},
			{0.078420f,-0.108881f,-0.292746f,},
		},
		{
			{-0.140001f,-0.065672f,0.034880f,},
			{-0.044702f,0.114180f,0.081122f,},
			{-0.034551f,0.018601f,-0.001868f,},
		},
		{
			{0.255392f,-0.251796f,-0.022615f,},
			{0.008278f,-0.552558f,0.086688f,},
			{0.072644f,-0.023694f,0.021355f,},
		},
		{
			{-0.181527f,0.105220f,0.076905f,},
			{0.119287f,0.246399f,0.000428f,},
			{-0.103594f,-0.061925f,0.003083f,},
		},
		{
			{-0.080537f,0.075515f,0.068864f,},
			{-0.025441f,0.153245f,0.052717f,},
			{0.064031f,0.085438f,-0.129685f,},
		},
		{
			{0.123635f,-0.022739f,-0.023048f,},
			{0.012452f,-0.106716f,0.002634f,},
			{0.020638f,0.041258f,-0.083472f,},
		},
		{
			{-0.165807f,0.018581f,-0.051271f,},
			{0.248963f,0.311790f,0.026866f,},
			{0.093627f,-0.056579f,-0.070607f,},
		},
		{
			{0.205155f,0.229350f,-0.046685f,},
			{0.111716f,-0.147697f,-0.263063f,},
			{-0.121178f,-0.307655f,0.473475f,},
		},
		{
			{-0.112964f,-0.071699f,-0.033557f,},
			{-0.032663f,0.085641f,0.066319f,},
			{-0.042512f,0.046980f,0.008015f,},
		},
		{
			{0.010334f,-0.194462f,-0.064456f,},
			{-0.314302f,-0.472704f,0.130234f,},
			{-0.015895f,0.340561f,0.199565f,},
		},
		{
			{0.133027f,-0.139803f,-0.186605f,},
			{-0.050298f,-0.307190f,-0.182566f,},
			{0.052242f,-0.061586f,-0.037236f,},
		},
		{
			{0.176607f,0.082332f,-0.076288f,},
			{0.180163f,0.016047f,-0.157507f,},
			{0.072848f,-0.068125f,-0.144994f,},
		},
		{
			{-0.057922f,-0.002837f,-0.024515f,},
			{-0.055686f,0.012619f,0.086732f,},
			{-0.062528f,0.029793f,0.023941f,},
		},
		{
			{0.172983f,0.082762f,0.076331f,},
			{0.081003f,-0.083524f,0.021382f,},
			{0.071749f,-0.036045f,-0.096514f,},
		},
		{
			{0.162471f,0.041385f,0.032718f,},
			{0.116492f,-0.014681f,0.008406f,},
			{0.064505f,-0.039484f,-0.042026f,},
		},
		{
			{-0.034192f,0.016683f,0.128740f,},
			{-0.060310f,-0.235647f,-0.068476f,},
			{-0.015739f,-0.109704f,0.146308f,},
		},
		{
			{-0.177732f,0.364370f,0.101979f,},
			{0.228240f,0.674981f,-0.092598f,},
			{0.103821f,0.127672f,-0.199577f,},
		},
		{
			{0.034800f,-0.039828f,0.077315f,},
			{-0.389290f,-0.085863f,0.072282f,},
			{-0.019308f,0.434274f,0.001249f,},
		},
		{
			{0.475265f,-0.521407f,-0.383113f,},
			{-0.057267f,-0.948647f,0.253013f,},
			{-0.084503f,-0.139483f,0.425265f,},
		},
		{
			{-0.261908f,0.023592f,0.117780f,},
			{0.007536f,0.271598f,0.215905f,},
			{-0.064650f,0.087401f,0.040043f,},
		},
		{
			{-0.084471f,-0.044772f,-0.001337f,},
			{-0.059895f,0.083245f,0.074479f,},
			{-0.035374f,0.014247f,0.066355f,},
		},
		{
			{-0.081998f,0.321733f,0.064818f,},
			{0.452293f,0.616326f,-0.016961f,},
			{0.054940f,-0.076291f,-0.265341f,},
		},
		{
			{0.070548f,-0.048170f,0.088773f,},
			{0.179898f,-0.058884f,-0.041578f,},
			{0.020665f,-0.180095f,0.040116f,},
		},
		{
			{-0.237287f,0.191597f,0.001953f,},
			{-0.062584f,0.484259f,-0.114759f,},
			{0.060787f,0.056928f,-0.153685f,},
		},
		{
			{0.090243f,0.195877f,0.045733f,},
			{0.079259f,0.077306f,-0.177691f,},
			{0.052915f,-0.022977f,-0.060155f,},
		},
		{
			{0.150767f,0.090950f,-0.121943f,},
			{-0.206941f,-0.115431f,0.008928f,},
			{-0.070797f,0.153096f,-0.073225f,},
		},
		{
			{0.125568f,0.106741f,0.061635f,},
			{0.235783f,0.220555f,-0.160165f,},
			{0.068293f,-0.148715f,-0.148870f,},
		},
		{
			{-0.157734f,-0.115508f,-0.010298f,},
			{-0.078294f,0.027241f,0.043740f,},
			{-0.060580f,0.051276f,0.150264f,},
		},
	},
	{
		{
			{0.493352f,0.417094f,-0.018352f,},
			{0.333057f,-0.259228f,-0.358939f,},
			{0.029864f,-0.276678f,-0.020731f,},
		},
		{
			{-0.200055f,-0.099646f,0.095985f,},
			{0.212743f,0.266925f,-0.013283f,},
			{0.115888f,-0.142163f,-0.273542f,},
		},
		{
			{-0.093011f,0.033490f,-0.033969f,},
			{-0.042538f,0.052939f,-0.065033f,},
			{0.041657f,0.035686f,-0.043073f,},
		},
		{
			{0.172778f,0.161461f,0.055418f,},
			{0.132172f,-0.074175f,-0.142831f,},
			{-0.029674f,-0.125360f,-0.124772f,},
		},
		{
			{0.325930f,0.192611f,-0.004485f,},
			{-0.025700f,-0.299165f,-0.207603f,},
			{0.029486f,0.073247f,-0.001694f,},
		},
		{
			{-0.086705f,-0.074967f,0.035260f,},
			{-0.004213f,0.067364f,0.120637f,},
			{-0.062405f,0.040566f,-0.045490f,},
		},
		{
			{0.354363f,-0.236820f,0.018248f,},
			{-0.122671f,-0.590118f,0.186286f,},
			{-0.190029f,0.009409f,0.278103f,},
		},
		{
			{-0.211550f,0.073182f,0.078441f,},
			{-0.311134f,0.004628f,0.079234f,},
			{-0.232831f,0.266034f,0.055147f,},
		},
		{
			{0.552662f,0.079787f,0.052165f,},
			{0.074963f,-0.433878f,-0.116991f,},
			{0.026001f,-0.160797f,-0.067691f,},
		},
		{
			{0.076070f,0.052371f,0.061181f,},
			{-0.004919f,0.067451f,-0.012237f,},
			{0.025764f,0.031675f,-0.105134f,},
		},
		{
			{-0.139352f,0.009892f,-0.051964f,},
			{0.139452f,0.271336f,0.123344f,},
			{-0.060542f,-0.129008f,0.001288f,},
		},
		{
			{-0.650593f,0.496545f,-0.076079f,},
			{0.120724f,0.896504f,-0.458765f,},
			{0.055862f,0.091801f,-0.356992f,},
		},
		{
			{-0.070818f,0.033402f,-0.001332f,},
			{0.047626f,0.121778f,-0.011537f,},
			{-0.003993f,-0.004958f,-0.050042f,},
		},
		{
			{0.063497f,-0.278425f,-0.086098f,},
			{0.013050f,-0.184998f,0.156137f,},
			{0.085196f,-0.053184f,0.239979f,},
		},
		{
			{0.077839f,-0.012284f,0.121222f,},
			{0.082617f,-0.005810f,0.005956f,},
			{0.029439f,-0.059542f,-0.095571f,},
		},
		{
			{0.457269f,-0.095764f,-0.333553f,},
			{-0.118341f,-0.023788f,-0.089337f,},
			{-0.024313f,0.351061f,-0.071766f,},
		},
		{
			{-0.074492f,-0.010668f,0.022765f,},
			{-0.029462f,0.061025f,0.083944f,},
			{-0.042181f,0.079277f,0.004515f,},
		},
		{
			{0.000474f,-0.061726f,-0.095838f,},
			{-0.186825f,0.012336f,-0.023713f,},
			{0.014839f,0.169161f,0.001901f,},
		},
		{
			{-0.470187f,0.119217f,0.003440f,},
			{0.383368f,0.587197f,-0.055240f,},
			{0.059384f,-0.211420f,-0.048105f,},
		},
		{
			{0.393548f,-0.324876f,-0.074377f,},
			{-0.212618f,-0.533803f,0.170339f,},
			{0.029695f,0.062225f,0.097042f,},
		},
		{
			{-0.239169f,0.268312f,0.027325f,},
			{0.170804f,0.379842f,0.007806f,},
			{0.025178f,-0.002388f,-0.047160f,},
		},
		{
			{0.095482f,0.155715f,0.000660f,},
			{-0.255996f,0.192390f,-0.170458f,},
			{0.007065f,0.182853f,-0.113267f,},
		},
		{
			{-0.715618f,0.026393f,0.130676f,},
			{-0.053444f,0.647824f,-0.061570f,},
			{0.145218f,0.060691f,-0.366091f,},
		},
		{
			{0.000686f,0.008042f,-0.012406f,},
			{0.011489f,-0.022234f,-0.078886f,},
			{0.069651f,0.034426f,0.025923f,},
		},
		{
			{-0.049426f,0.014010f,-0.004944f,},
			{-0.013794f,0.046597f,0.054933f,},
			{-0.000831f,0.034980f,0.016405f,},
		},
		{
			{-0.271343f,0.279935f,0.056145f,},
			{0.017548f,0.444382f,-0.008360f,},
			{-0.052708f,0.161246f,0.001039f,},
		},
		{
			{-0.133068f,-0.079366f,0.052756f,},
			{0.254927f,0.305262f,0.168382f,},
			{0.039386f,-0.330001f,-0.265580f,},
		},
		{
			{0.031841f,0.334561f,0.139763f,},
			{0.403961f,0.079468f,-0.079514f,},
			{-0.222458f,-0.525371f,0.286087f,},
		},
		{
			{-0.233404f,-0.084555f,0.066000f,},
			{0.044090f,0.270297f,0.189232f,},
			{-0.026682f,-0.067223f,0.032177f,},
		},
		{
			{-0.268910f,-0.117944f,0.256786f,},
			{-0.068247f,0.252152f,0.069017f,},
			{0.145812f,-0.075952f,-0.213375f,},
		},
		{
			{-0.071870f,-0.289384f,-0.110353f,},
			{0.199010f,0.291057f,0.310093f,},
			{0.048700f,-0.144486f,-0.185793f,},
		},
		{
			{-0.071748f,-0.148374f,-0.008115f,},
			{-0.065669f,-0.003971f,0.052928f,},
			{-0.001109f,0.072444f,0.016914f,},
		},
	},
	{
		{
			{-0.052375f,0.042576f,0.097914f,},
			{-0.315611f,0.093079f,-0.017210f,},
			{-0.034899f,0.036775f,0.038704f,},
		},
		{
			{0.068774f,-0.004974f,-0.097366f,},
			{0.008041f,0.191076f,0.008181f,},
			{0.111577f,-0.128362f,-0.091664f,},
		},
		{
			{-0.005717f,0.032077f,0.010673f,},
			{-0.141494f,-0.096179f,-0.089340f,},
			{-0.155368f,-0.135790f,-0.072838f,},
		},
		{
			{0.083477f,0.060738f,0.127536f,},
			{0.243440f,0.308397f,0.106073f,},
			{0.187461f,0.267464f,0.095716f,},
		},
		{
			{-0.004025f,0.002596f,0.059193f,},
			{-0.103974f,-0.088506f,0.044824f,},
			{-0.013891f,0.153022f,-0.005815f,},
		},
		{
			{-0.102295f,-0.071107f,-0.012531f,},
			{-0.169497f,-0.107307f,-0.098737f,},
			{-0.083179f,-0.080480f,-0.064441f,},
		},
		{
			{-0.120804f,-0.128902f,0.129363f,},
			{-0.023571f,-0.069742f,0.003571f,},
			{-0.049917f,-0.096539f,0.104735f,},
		},
		{
			{0.007628f,0.073055f,0.051610f,},
			{-0.027867f,-0.078690f,0.044538f,},
			{-0.039405f,0.017461f,0.027705f,},
		},
		{
			{-0.195261f,-0.031129f,0.020247f,},
			{0.103310f,0.111483f,0.030789f,},
			{-0.111399f,0.134299f,0.068786f,},
		},
		{
			{0.025150f,0.007494f,0.016976f,},
			{0.054455f,-0.094786f,0.065195f,},
			{-0.135729f,0.063305f,-0.074293f,},
		},
		{
			{-0.104299f,-0.056155f,0.145469f,},
			{-0.275306f,-0.140280f,-0.009015f,},
			{0.075440f,0.053241f,0.021915f,},
		},
		{
			{0.025531f,0.036166f,-0.045439f,},
			{-0.073893f,0.217254f,-0.047320f,},
			{0.082705f,-0.190063f,-0.057306f,},
		},
		{
			{0.007929f,0.023967f,0.033774f,},
			{-0.060416f,0.043676f,0.014201f,},
			{0.025820f,0.053120f,0.031868f,},
		},
		{
			{-0.137016f,-0.210082f,0.097024f,},
			{-0.353644f,0.023855f,-0.078289f,},
			{0.010656f,0.148874f,0.182227f,},
		},
		{
			{-0.064980f,-0.025952f,-0.055037f,},
			{0.107581f,0.132365f,0.028444f,},
			{-0.000820f,0.073351f,0.042572f,},
		},
		{
			{-0.249111f,-0.126452f,-0.052829f,},
			{0.045789f,0.063811f,-0.060030f,},
			{0.173195f,0.118365f,-0.016156f,},
		},
		{
			{0.041269f,0.025927f,0.003374f,},
			{-0.047757f,0.002671f,-0.012581f,},
			{0.023247f,0.024727f,-0.002554f,},
		},
		{
			{0.221536f,0.006948f,0.012874f,},
			{0.241243f,0.147065f,0.048674f,},
			{0.166704f,0.126380f,0.037113f,},
		},
		{
			{0.132556f,-0.121584f,-0.042565f,},
			{-0.021692f,-0.014652f,-0.020549f,},
			{0.290410f,-0.004799f,0.005563f,},
		},
		{
			{0.052528f,0.089157f,0.034665f,},
			{0.279369f,-0.251529f,0.124917f,},
			{-0.185513f,-0.027819f,-0.039735f,},
		},
		{
			{-0.185633f,0.086007f,0.014297f,},
			{-0.331167f,0.383887f,-0.062358f,},
			{-0.055007f,0.150958f,-0.041532f,},
		},
		{
			{0.314916f,-0.166114f,0.045541f,},
			{-0.058696f,0.173311f,-0.154278f,},
			{-0.074539f,0.136563f,-0.125253f,},
		},
		{
			{0.154236f,-0.103479f,0.025516f,},
			{-0.149413f,-0.025055f,-0.073863f,},
			{0.079277f,-0.112690f,-0.057264f,},
		},
		{
			{-0.186189f,-0.122394f,-0.101791f,},
			{-0.312077f,-0.203237f,-0.119045f,},
			{-0.164468f,-0.233310f,-0.125446f,},
		},
		{
			{0.041724f,0.067610f,0.046963f,},
			{-0.027449f,-0.018071f,0.062302f,},
			{-0.001917f,0.022338f,0.036199f,},
		},
		{
			{-0.177633f,-0.007467f,-0.079719f,},
			{-0.183727f,0.248791f,0.081611f,},
			{0.114777f,0.335146f,0.076710f,},
		},
		{
			{-0.121400f,0.014263f,-0.042059f,},
			{0.109440f,-0.102154f,-0.028475f,},
			{0.083557f,0.062570f,-0.090419f,},
		},
		{
			{0.052091f,0.034408f,0.053995f,},
			{-0.195202f,0.181392f,0.114596f,},
			{-0.087022f,0.074856f,-0.069958f,},
		},
		{
			{0.146604f,0.032241f,-0.040631f,},
			{-0.037084f,0.183797f,0.119531f,},
			{0.256113f,0.194554f,0.018339f,},
		},
		{
			{0.178190f,0.010416f,-0.002123f,},
			{0.072066f,-0.024780f,0.031767f,},
			{-0.039692f,-0.033555f,-0.040827f,},
		},
		{
			{0.088909f,-0.022642f,-0.024204f,},
			{0.107983f,-0.034536f,0.001009f,},
			{0.074984f,0.071134f,-0.079040f,},
		},
		{
			{-0.082004f,-0.051236f,-0.080474f,},
			{-0.122660f,-0.216043f,-0.070180f,},
			{-0.132818f,-0.210675f,-0.099047f,},
		},
	},
	{
		{
			{0.186780f,0.307715f,0.142051f,},
			{0.342431f,0.544418f,0.267304f,},
			{0.162526f,0.257994f,0.185773f,},
		},
		{
			{0.044134f,-0.210982f,0.037285f,},
			{-0.134275f,-0.256974f,-0.199846f,},
			{0.112434f,0.251865f,-0.024935f,},
		},
		{
			{-0.012200f,-0.000626f,-0.022429f,},
			{0.074862f,0.239189f,0.010679f,},
			{-0.022175f,0.131401f,0.028640f,},
		},
		{
			{0.016245f,-0.004735f,0.071434f,},
			{0.082937f,0.101636f,0.070060f,},
			{0.054839f,0.117284f,0.128440f,},
		},
		{
			{-0.081673f,0.330227f,0.064920f,},
			{0.219442f,0.515319f,0.239647f,},
			{-0.232492f,-0.235325f,-0.164294f,},
		},
		{
			{0.030675f,0.145670f,0.049135f,},
			{0.045117f,0.198301f,0.101493f,},
			{-0.038224f,0.011474f,0.025717f,},
		},
		{
			{0.068969f,0.083722f,0.116291f,},
			{-0.092319f,-0.288831f,0.233217f,},
			{0.237957f,0.006842f,-0.100209f,},
		},
		{
			{0.005239f,0.123457f,0.077796f,},
			{-0.028583f,-0.149493f,-0.001678f,},
			{0.088817f,-0.068579f,0.076497f,},
		},
		{
			{0.079308f,0.051712f,0.074329f,},
			{0.143867f,0.101193f,0.065901f,},
			{0.165531f,0.111869f,0.121843f,},
		},
		{
			{0.067696f,-0.008101f,0.089346f,},
			{0.010228f,-0.051952f,0.101608f,},
			{-0.030642f,-0.060082f,-0.069748f,},
		},
		{
			{-0.061133f,-0.019488f,-0.018119f,},
			{0.087422f,0.078004f,-0.114723f,},
			{0.080977f,0.019447f,0.061112f,},
		},
		{
			{-0.018311f,0.034062f,0.013180f,},
			{-0.120610f,-0.188430f,-0.062557f,},
			{-0.041220f,-0.097701f,0.187760f,},
		},
		{
			{0.028326f,0.054161f,-0.020544f,},
			{0.071690f,0.058545f,0.031223f,},
			{0.093209f,0.052654f,-0.003988f,},
		},
		{
			{0.093295f,0.149177f,0.008367f,},
			{-0.039967f,0.020174f,0.060442f,},
			{0.057559f,0.131795f,-0.068014f,},
		},
		{
			{-0.053544f,-0.061046f,0.050538f,},
			{-0.041495f,-0.195743f,0.009846f,},
			{0.025410f,-0.057480f,0.065798f,},
		},
		{
			{0.119525f,0.029552f,0.242151f,},
			{-0.067709f,-0.161147f,-0.068466f,},
			{0.070726f,-0.004929f,-0.083006f,},
		},
		{
			{0.082904f,0.135688f,0.051029f,},
			{0.082075f,0.139804f,0.101688f,},
			{0.030446f,0.069710f,0.000822f,},
		},
		{
			{0.065252f,0.006998f,0.101335f,},
			{-0.029934f,-0.114830f,0.031757f,},
			{-0.028480f,-0.093807f,-0.079910f,},
		},
		{
			{0.016240f,0.014278f,-0.018082f,},
			{-0.002007f,-0.042719f,-0.045575f,},
			{-0.009427f,-0.133603f,0.004839f,},
		},
		{
			{-0.041330f,-0.058358f,-0.192629f,},
			{0.043702f,0.048378f,0.014665f,},
			{-0.052710f,0.125660f,0.016074f,},
		},
		{
			{-0.150014f,-0.025513f,-0.059350f,},
			{0.100943f,0.052075f,-0.417371f,},
			{0.027798f,-0.073388f,-0.073799f,},
		},
		{
			{0.050366f,-0.148942f,0.181586f,},
			{-0.034753f,0.092072f,-0.044573f,},
			{0.143234f,0.353792f,-0.226348f,},
		},
		{
			{-0.143452f,-0.427568f,0.324182f,},
			{-0.429447f,-0.687935f,0.362678f,},
			{0.106230f,0.074794f,-0.001186f,},
		},
		{
			{-0.031055f,0.123097f,-0.012600f,},
			{0.015336f,0.138288f,0.011691f,},
			{-0.107843f,-0.018240f,-0.035675f,},
		},
		{
			{0.064263f,0.005396f,-0.009091f,},
			{0.086250f,0.049322f,0.020972f,},
			{0.003167f,0.011034f,0.061461f,},
		},
		{
			{0.066971f,0.053201f,0.145723f,},
			{0.019034f,-0.007835f,0.059552f,},
			{-0.096314f,-0.203951f,-0.043804f,},
		},
		{
			{-0.047065f,0.038024f,-0.060833f,},
			{-0.046355f,-0.091977f,-0.014701f,},
			{0.020211f,-0.030193f,0.168859f,},
		},
		{
			{-0.184904f,-0.224346f,-0.229862f,},
			{0.351614f,0.283404f,-0.228392f,},
			{-0.022497f,0.082720f,-0.112133f,},
		},
		{
			{0.050924f,-0.097382f,-0.113205f,},
			{0.095897f,-0.080223f,-0.111395f,},
			{-0.010274f,-0.041745f,-0.060181f,},
		},
		{
			{0.078568f,-0.119148f,-0.074476f,},
			{-0.028394f,0.022063f,0.076019f,},
			{-0.054479f,0.053530f,0.002333f,},
		},
		{
			{0.025814f,-0.070651f,-0.002644f,},
			{0.030203f,-0.106970f,-0.227861f,},
			{0.032007f,-0.039614f,-0.025518f,},
		},
		{
			{-0.056276f,0.001574f,-0.083967f,},
			{-0.023129f,0.061239f,-0.054369f,},
			{-0.070626f,0.105207f,0.021603f,},
		},
	},
	{
		{
			{-0.160965f,0.012541f,0.038362f,},
			{0.066309f,0.006574f,0.016768f,},
			{-0.066854f,0.020953f,-0.108331f,},
		},
		{
			{-0.029364f,-0.073365f,-0.005359f,},
			{-0.096325f,0.111649f,-0.062282f,},
			{0.064993f,-0.086096f,0.083539f,},
		},
		{
			{-0.024893f,0.031055f,0.068426f,},
			{0.021332f,-0.088358f,-0.030484f,},
			{0.040839f,-0.067451f,-0.028599f,},
		},
		{
			{0.107284f,0.287269f,0.062228f,},
			{0.157072f,0.129055f,0.248571f,},
			{0.004108f,0.077760f,0.104101f,},
		},
		{
			{0.122214f,0.239180f,0.121065f,},
			{0.114954f,-0.138826f,0.090612f,},
			{-0.096210f,0.075825f,-0.066325f,},
		},
		{
			{0.037357f,0.012622f,0.056489f,},
			{0.079541f,0.009010f,0.049684f,},
			{0.038368f,0.042399f,0.019764f,},
		},
		{
			{0.002328f,-0.047689f,0.108307f,},
			{-0.031076f,0.177492f,-0.095721f,},
			{-0.098169f,-0.024995f,0.080829f,},
		},
		{
			{-0.084517f,0.091238f,0.138296f,},
			{-0.062612f,0.010426f,0.039453f,},
			{-0.105905f,-0.056828f,-0.255521f,},
		},
		{
			{0.119102f,0.339256f,-0.029744f,},
			{0.017457f,0.190612f,0.203398f,},
			{-0.009840f,-0.064288f,0.045923f,},
		},
		{
			{0.032428f,0.035230f,-0.135751f,},
			{-0.080519f,0.056231f,-0.060578f,},
			{-0.011080f,-0.009331f,-0.002029f,},
		},
		{
			{-0.029662f,-0.052149f,0.025386f,},
			{0.102618f,-0.046115f,0.015543f,},
			{-0.033479f,0.007984f,-0.011335f,},
		},
		{
			{0.062601f,0.021545f,-0.073883f,},
			{-0.062224f,-0.181946f,0.169085f,},
			{-0.056877f,0.064320f,-0.275779f,},
		},
		{
			{0.014294f,-0.005569f,0.007294f,},
			{0.005857f,-0.093235f,0.040091f,},
			{-0.027979f,-0.002643f,-0.049654f,},
		},
		{
			{-0.021095f,-0.375968f,0.151471f,},
			{-0.013957f,0.174217f,-0.278466f,},
			{0.099381f,0.028677f,0.159940f,},
		},
		{
			{0.076042f,0.093711f,0.043624f,},
			{0.031478f,0.293583f,-0.033948f,},
			{0.030262f,0.088827f,0.053541f,},
		},
		{
			{-0.009244f,0.098733f,-0.177073f,},
			{0.025748f,0.035871f,0.190377f,},
			{0.007988f,-0.076898f,0.060151f,},
		},
		{
			{-0.059593f,-0.038312f,0.018008f,},
			{-0.045278f,-0.076466f,-0.014485f,},
			{0.016492f,-0.042987f,0.021047f,},
		},
		{
			{0.006566f,0.022349f,0.058268f,},
			{-0.003588f,-0.074006f,-0.043125f,},
			{-0.020009f,-0.076387f,0.100938f,},
		},
		{
			{-0.042909f,-0.277245f,0.061713f,},
			{-0.016290f,-0.081374f,-0.173418f,},
			{0.040266f,0.155403f,0.152934f,},
		},
		{
			{0.113652f,0.081188f,-0.025183f,},
			{0.034658f,0.006366f,0.051500f,},
			{0.004982f,-0.018828f,-0.035252f,},
		},
		{
			{-0.118988f,0.018213f,-0.049816f,},
			{-0.020368f,-0.233789f,0.218822f,},
			{-0.138581f,0.138358f,-0.015785f,},
		},
		{
			{-0.070977f,-0.059847f,0.070358f,},
			{-0.066852f,0.070199f,0.006061f,},
			{0.034758f,-0.292236f,0.268463f,},
		},
		{
			{-0.074631f,-0.183442f,0.359550f,},
			{-0.108481f,0.165192f,-0.229438f,},
			{-0.055418f,-0.211706f,-0.048307f,},
		},
		{
			{0.020257f,0.064188f,0.034040f,},
			{0.049635f,-0.117067f,0.101892f,},
			{0.055317f,-0.029811f,0.042007f,},
		},
		{
			{0.033781f,0.026134f,-0.008274f,},
			{-0.001590f,-0.060684f,-0.020481f,},
			{-0.016189f,-0.032766f,0.013776f,},
		},
		{
			{-0.062709f,-0.017717f,-0.070473f,},
			{-0.109834f,-0.174454f,-0.011757f,},
			{-0.021777f,0.142030f,-0.020934f,},
		},
		{
			{0.041202f,-0.045128f,-0.060579f,},
			{0.075770f,0.084414f,0.014979f,},
			{-0.051783f,0.104992f,-0.012761f,},
		},
		{
			{-0.033430f,-0.053917f,0.100821f,},
			{-0.028336f,-0.200693f,-0.065337f,},
			{0.177363f,0.067223f,-0.017742f,},
		},
		{
			{-0.008636f,-0.223124f,-0.020391f,},
			{0.003401f,-0.060183f,-0.120209f,},
			{0.072298f,0.153148f,0.087991f,},
		},
		{
			{-0.002693f,-0.100490f,0.127768f,},
			{-0.142417f,0.093554f,-0.209419f,},
			{0.066704f,0.021573f,0.052421f,},
		},
		{
			{0.085539f,-0.010727f,-0.058197f,},
			{0.039441f,-0.052286f,-0.010768f,},
			{-0.038371f,0.062581f,0.062624f,},
		},
		{
			{0.041285f,0.032800f,-0.106940f,},
			{0.020786f,-0.021049f,0.046862f,},
			{0.046057f,-0.078590f,-0.028187f,},
		},
	},
	{
		{
			{0.115650f,0.045880f,0.181455f,},
			{0.061914f,-0.396727f,-0.036657f,},
			{0.151791f,-0.156547f,0.024129f,},
		},
		{
			{-0.093307f,-0.064460f,-0.083455f,},
			{-0.045023f,-0.168000f,-0.010072f,},
			{-0.137799f,0.154850f,0.083475f,},
		},
		{
			{0.065625f,0.077329f,0.039118f,},
			{0.082393f,0.191933f,0.111908f,},
			{-0.017558f,0.104018f,0.014046f,},
		},
		{
			{-0.053592f,-0.072294f,-0.031091f,},
			{-0.083918f,-0.210218f,-0.186686f,},
			{-0.014877f,-0.202325f,-0.167120f,},
		},
		{
			{-0.055879f,-0.013983f,-0.025958f,},
			{0.001365f,0.201528f,0.040184f,},
			{-0.043716f,-0.308497f,-0.191119f,},
		},
		{
			{0.071838f,0.134406f,0.058082f,},
			{0.025003f,0.270042f,0.190446f,},
			{-0.065982f,-0.005501f,0.022005f,},
		},
		{
			{0.201343f,-0.039389f,0.062237f,},
			{-0.181683f,-0.531986f,0.321022f,},
			{0.093413f,0.130620f,0.117556f,},
		},
		{
			{0.082493f,0.073536f,-0.073793f,},
			{0.054656f,0.092680f,-0.035902f,},
			{-0.118484f,-0.015999f,0.067267f,},
		},
		{
			{-0.091828f,-0.101051f,-0.060145f,},
			{-0.151969f,-0.272400f,-0.215975f,},
			{0.081132f,0.013018f,0.034944f,},
		},
		{
			{-0.017034f,0.004508f,-0.051166f,},
			{-0.019574f,0.063028f,0.028620f,},
			{-0.019769f,-0.022487f,0.038174f,},
		},
		{
			{0.035541f,0.127470f,0.069333f,},
			{-0.079186f,0.112348f,0.087006f,},
			{0.044965f,-0.210848f,-0.124126f,},
		},
		{
			{-0.175995f,0.098067f,-0.080721f,},
			{0.272771f,0.257158f,-0.273808f,},
			{-0.140742f,-0.138116f,0.215862f,},
		},
		{
			{0.042994f,0.053134f,0.062319f,},
			{0.119362f,0.206361f,0.097797f,},
			{0.077407f,0.054416f,0.059272f,},
		},
		{
			{0.117698f,0.012575f,0.009355f,},
			{0.022646f,-0.303809f,0.183792f,},
			{0.123787f,0.200156f,0.050734f,},
		},
		{
			{-0.028067f,-0.105171f,-0.087110f,},
			{-0.126815f,-0.130855f,-0.088832f,},
			{-0.028690f,-0.044353f,0.021637f,},
		},
		{
			{0.070696f,-0.050945f,0.095365f,},
			{-0.147596f,-0.112736f,-0.011221f,},
			{0.065615f,0.065637f,0.058912f,},
		},
		{
			{0.044249f,0.112163f,0.047270f,},
			{0.114346f,0.156833f,0.152384f,},
			{0.072221f,0.150869f,0.090563f,},
		},
		{
			{0.017684f,-0.089437f,0.013887f,},
			{-0.040900f,-0.140399f,-0.050432f,},
			{0.129004f,-0.009774f,-0.060027f,},
		},
		{
			{-0.057591f,0.012552f,0.034928f,},
			{0.056249f,0.082531f,-0.026351f,},
			{-0.044135f,-0.177493f,-0.167990f,},
		},
		{
			{0.025119f,-0.069546f,-0.055442f,},
			{-0.149695f,-0.150220f,0.104784f,},
			{0.001229f,0.015606f,0.190956f,},
		},
		{
			{-0.012137f,0.098984f,0.008331f,},
			{0.103108f,0.394564f,-0.130721f,},
			{-0.079654f,-0.283426f,-0.201431f,},
		},
		{
			{0.013012f,0.007959f,0.165766f,},
			{-0.140932f,-0.338971f,-0.048981f,},
			{0.331596f,0.321766f,-0.000273f,},
		},
		{
			{-0.041752f,0.010578f,-0.067654f,},
			{-0.001152f,-0.208458f,0.382795f,},
			{-0.147580f,-0.247346f,-0.174590f,},
		},
		{
			{-0.007370f,0.027537f,-0.077643f,},
			{0.069197f,0.177149f,0.026453f,},
			{-0.098999f,0.060514f,0.015957f,},
		},
		{
			{0.011499f,0.031601f,-0.010685f,},
			{0.089922f,0.148749f,0.044124f,},
			{0.047698f,0.073294f,0.032156f,},
		},
		{
			{0.010816f,-0.079942f,-0.104114f,},
			{0.279270f,0.208819f,-0.108215f,},
			{0.056804f,-0.043871f,-0.073742f,},
		},
		{
			{-0.001837f,0.082351f,0.082624f,},
			{-0.039183f,0.067101f,0.015006f,},
			{-0.040622f,-0.197948f,-0.061283f,},
		},
		{
			{-0.018213f,0.071330f,-0.175137f,},
			{0.176781f,0.233213f,0.004328f,},
			{-0.267301f,-0.321353f,0.063430f,},
		},
		{
			{-0.029888f,-0.045389f,-0.017739f,},
			{0.060210f,-0.010577f,0.048502f,},
			{0.035036f,0.007213f,0.017275f,},
		},
		{
			{-0.028395f,0.009853f,-0.021175f,},
			{0.110839f,-0.033727f,-0.017858f,},
			{0.038187f,0.085336f,-0.025803f,},
		},
		{
			{-0.028076f,0.058576f,0.114342f,},
			{-0.124243f,0.107398f,0.019951f,},
			{0.015977f,-0.165939f,-0.147812f,},
		},
		{
			{-0.058877f,0.028282f,-0.011484f,},
			{-0.025729f,0.208116f,0.099170f,},
			{-0.046663f,0.109631f,0.080752f,},
		},
	},
	{
		{
			{0.174796f,0.143875f,-0.242229f,},
			{0.579943f,0.397315f,-0.323444f,},
			{-0.368209f,-0.301289f,-0.280661f,},
		},
		{
			{-0.033296f,0.079918f,-0.033968f,},
			{0.282697f,0.468173f,-0.172850f,},
			{-0.144748f,-0.598887f,0.061119f,},
		},
		{
			{0.023667f,0.037829f,-0.010090f,},
			{0.023893f,-0.021529f,0.079458f,},
			{-0.096177f,0.048848f,0.021607f,},
		},
		{
			{-0.048610f,-0.099791f,0.042650f,},
			{-0.057257f,-0.323136f,0.107711f,},
			{0.026805f,0.153138f,0.131930f,},
		},
		{
			{0.105185f,-0.178329f,0.034000f,},
			{-0.224734f,-0.597259f,0.049486f,},
			{0.202974f,0.672832f,-0.131801f,},
		},
		{
			{0.095110f,-0.093115f,0.097179f,},
			{-0.110113f,-0.232982f,0.070185f,},
			{0.076980f,0.071340f,-0.145176f,},
		},
		{
			{0.011270f,0.060453f,-0.035885f,},
			{0.065089f,0.224466f,-0.647505f,},
			{0.082175f,0.133660f,0.195318f,},
		},
		{
			{0.033834f,-0.258847f,-0.018400f,},
			{-0.089255f,-0.254431f,0.056694f,},
			{0.044603f,0.362425f,-0.021452f,},
		},
		{
			{0.094500f,-0.083271f,-0.009867f,},
			{-0.091324f,-0.554867f,0.155009f,},
			{-0.002049f,0.106760f,0.051843f,},
		},
		{
			{-0.008014f,0.027553f,0.053894f,},
			{-0.000795f,0.067919f,-0.020406f,},
			{0.110345f,-0.002202f,-0.128831f,},
		},
		{
			{-0.010571f,0.005844f,0.009554f,},
			{-0.015240f,-0.120550f,-0.198531f,},
			{0.063020f,0.325654f,0.048944f,},
		},
		{
			{-0.186122f,-0.052701f,0.255893f,},
			{0.094298f,0.047453f,-0.243986f,},
			{0.217595f,0.127244f,-0.046090f,},
		},
		{
			{0.000338f,-0.087290f,-0.016515f,},
			{-0.060542f,-0.104919f,-0.020992f,},
			{0.057625f,0.117689f,0.047287f,},
		},
		{
			{0.016614f,0.293334f,0.026770f,},
			{0.028470f,0.892057f,-0.522542f,},
			{-0.300035f,-0.615262f,-0.330106f,},
		},
		{
			{-0.046176f,0.133209f,-0.027202f,},
			{0.041015f,-0.005475f,-0.416399f,},
			{-0.195116f,-0.396899f,-0.030838f,},
		},
		{
			{0.149534f,0.004029f,0.006728f,},
			{0.160730f,-0.157320f,-0.106597f,},
			{-0.025161f,-0.177562f,-0.082809f,},
		},
		{
			{-0.039815f,-0.060066f,0.010513f,},
			{0.022754f,-0.000284f,0.011302f,},
			{0.011464f,0.025978f,-0.084222f,},
		},
		{
			{-0.309825f,-0.071313f,-0.047870f,},
			{0.036925f,0.486881f,-0.009056f,},
			{-0.114035f,0.060457f,0.107214f,},
		},
		{
			{-0.122028f,0.029439f,-0.272737f,},
			{0.104650f,0.610407f,0.104350f,},
			{-0.284784f,-0.594933f,0.299346f,},
		},
		{
			{0.022808f,-0.133623f,0.086940f,},
			{-0.161022f,-0.319501f,0.434358f,},
			{0.301335f,0.226989f,-0.270409f,},
		},
		{
			{0.196340f,0.025587f,-0.009858f,},
			{0.048212f,-0.571435f,-0.026423f,},
			{0.065120f,0.203456f,-0.021301f,},
		},
		{
			{-0.241572f,-0.055138f,-0.165868f,},
			{0.289752f,0.520375f,-0.150669f,},
			{-0.385291f,-0.262666f,0.006367f,},
		},
		{
			{-0.342476f,-0.014315f,-0.118277f,},
			{0.336165f,0.527050f,-1.180855f,},
			{0.032559f,-0.023808f,0.557124f,},
		},
		{
			{0.178675f,0.016764f,0.088370f,},
			{-0.068892f,-0.441355f,0.370148f,},
			{0.071903f,0.050062f,-0.038565f,},
		},
		{
			{0.039071f,-0.020854f,0.025435f,},
			{-0.091914f,-0.188682f,0.040645f,},
			{0.003151f,0.031622f,0.005375f,},
		},
		{
			{0.024002f,0.057663f,0.007295f,},
			{-0.152375f,0.032635f,-0.156436f,},
			{0.120422f,0.241735f,-0.125217f,},
		},
		{
			{-0.018180f,-0.021318f,0.108391f,},
			{-0.142031f,-0.201335f,0.169655f,},
			{0.069658f,0.054371f,-0.029013f,},
		},
		{
			{-0.074988f,0.146514f,-0.218097f,},
			{0.039801f,0.236908f,-0.078596f,},
			{-0.097733f,0.098100f,-0.199820f,},
		},
		{
			{0.005841f,0.094382f,-0.078975f,},
			{-0.011023f,0.661572f,0.175254f,},
			{-0.226890f,-0.582748f,-0.288830f,},
		},
		{
			{0.050272f,-0.044478f,-0.046212f,},
			{-0.126591f,0.494147f,0.096716f,},
			{-0.158224f,-0.302805f,0.128087f,},
		},
		{
			{-0.077751f,-0.199521f,0.061767f,},
			{-0.084175f,-0.055821f,0.292796f,},
			{0.065927f,0.130943f,-0.091326f,},
		},
		{
			{0.179171f,0.022433f,0.123309f,},
			{-0.071343f,-0.490757f,0.146416f,},
			{0.178024f,-0.036646f,-0.012699f,},
		},
	},
	{
		{
			{-0.217884f,-0.016957f,-0.223048f,},
			{0.323667f,-0.094734f,-0.258754f,},
			{0.081943f,0.049989f,-0.083115f,},
		},
		{
			{0.134694f,0.062229f,0.163786f,},
			{-0.006428f,-0.058127f,0.088596f,},
			{0.241779f,-0.211702f,-0.094703f,},
		},
		{
			{0.034478f,0.185064f,-0.014700f,},
			{-0.115190f,-0.017382f,-0.089514f,},
			{-0.028805f,-0.032128f,-0.176079f,},
		},
		{
			{-0.136688f,-0.085566f,-0.122364f,},
			{0.181575f,0.191904f,-0.024296f,},
			{0.030595f,0.079298f,-0.146506f,},
		},
		{
			{-0.104785f,0.085482f,0.084525f,},
			{0.149634f,0.095681f,-0.021536f,},
			{-0.034565f,0.277785f,0.080286f,},
		},
		{
			{-0.123633f,0.073179f,0.016592f,},
			{-0.110032f,-0.159687f,-0.097631f,},
			{-0.008308f,0.006756f,-0.014743f,},
		},
		{
			{0.026585f,-0.757092f,0.352942f,},
			{0.085123f,-0.356687f,0.146511f,},
			{-0.180102f,-0.170303f,0.254991f,},
		},
		{
			{-0.121302f,0.072236f,-0.076116f,},
			{-0.291058f,0.376778f,0.090814f,},
			{-0.204762f,0.201613f,-0.126533f,},
		},
		{
			{0.017261f,-0.111688f,-0.012854f,},
			{0.061031f,0.300279f,0.186113f,},
			{-0.208676f,-0.015576f,-0.072752f,},
		},
		{
			{0.158228f,0.035597f,0.297677f,},
			{-0.049977f,0.221122f,0.000946f,},
			{0.023647f,-0.063620f,-0.080024f,},
		},
		{
			{-0.231015f,0.013021f,-0.135796f,},
			{-0.154646f,-0.434231f,-0.185210f,},
			{0.265738f,0.241500f,0.285765f,},
		},
		{
			{-0.092969f,0.530066f,-0.311522f,},
			{-0.270226f,-0.091644f,0.231908f,},
			{0.160037f,-0.059380f,-0.074848f,},
		},
		{
			{-0.061209f,0.100633f,-0.013406f,},
			{-0.103614f,-0.085066f,-0.026359f,},
			{-0.001879f,-0.016941f,-0.072132f,},
		},
		{
			{-0.028701f,-0.399743f,0.275175f,},
			{0.259295f,-0.197831f,-0.344488f,},
			{-0.288725f,-0.076261f,0.258935f,},
		},
		{
			{0.073737f,-0.181150f,0.252271f,},
			{0.008209f,0.025231f,0.266950f,},
			{-0.165038f,-0.046534f,0.057895f,},
		},
		{
			{0.073102f,-0.241198f,-0.133494f,},
			{0.057279f,-0.081517f,-0.074490f,},
			{-0.021474f,-0.026592f,0.331899f,},
		},
		{
			{-0.023813f,0.015832f,-0.018243f,},
			{-0.042693f,-0.065889f,-0.090252f,},
			{-0.086427f,0.004404f,-0.065044f,},
		},
		{
			{0.293777f,-0.265529f,-0.243450f,},
			{0.364205f,0.303175f,-0.217195f,},
			{-0.118458f,-0.126460f,0.015004f,},
		},
		{
			{-0.145073f,0.212512f,-0.276890f,},
			{0.008817f,-0.271534f,-0.215400f,},
			{0.124569f,0.092119f,0.164376f,},
		},
		{
			{0.008571f,-0.273429f,0.264265f,},
			{0.176042f,-0.030474f,0.179046f,},
			{0.198284f,-0.195976f,-0.152536f,},
		},
		{
			{-0.085876f,0.482582f,-0.140098f,},
			{-0.227084f,0.046351f,-0.062193f,},
			{0.111543f,0.103263f,0.064615f,},
		},
		{
			{0.107096f,-0.451386f,-0.153701f,},
			{0.227369f,0.394763f,-0.609599f,},
			{-0.027832f,-0.031009f,-0.017754f,},
		},
		{
			{0.160294f,-0.269775f,0.394658f,},
			{-0.182493f,-0.245448f,0.081975f,},
			{0.197448f,-0.041596f,-0.062863f,},
		},
		{
			{0.006567f,0.262134f,0.028124f,},
			{-0.186407f,0.021074f,-0.131216f,},
			{0.001335f,0.066813f,0.022492f,},
		},
		{
			{-0.002291f,0.098207f,0.090238f,},
			{-0.047015f,0.031840f,-0.009275f,},
			{-0.006422f,0.059082f,0.034420f,},
		},
		{
			{-0.004927f,0.375775f,-0.156834f,},
			{-0.114757f,0.306345f,0.005258f,},
			{-0.293011f,0.310740f,0.278606f,},
		},
		{
			{-0.279977f,-0.022629f,-0.131254f,},
			{0.002342f,-0.340606f,0.174989f,},
			{0.152164f,0.178129f,0.024217f,},
		},
		{
			{-0.078135f,0.596283f,-0.176213f,},
			{-0.074058f,-0.074468f,0.139248f,},
			{0.361008f,-0.318482f,-0.128975f,},
		},
		{
			{-0.143556f,0.267981f,0.012871f,},
			{0.174387f,-0.056024f,0.032210f,},
			{0.041134f,-0.090289f,0.179322f,},
		},
		{
			{0.114087f,0.083628f,0.234782f,},
			{-0.002558f,0.380381f,-0.130469f,},
			{-0.170785f,0.091066f,-0.259755f,},
		},
		{
			{-0.183223f,-0.129609f,-0.086796f,},
			{-0.008277f,-0.291304f,-0.215902f,},
			{0.312041f,0.150650f,0.075670f,},
		},
		{
			{0.034646f,0.162209f,0.258709f,},
			{-0.286381f,-0.064445f,0.048800f,},
			{0.084865f,-0.039355f,-0.039126f,},
		},
	},
	{
		{
			{-0.149670f,-0.213704f,-0.071502f,},
			{-0.168134f,-0.233777f,-0.024635f,},
			{0.065385f,0.096110f,-0.081147f,},
		},
		{
			{0.057994f,0.078599f,-0.069698f,},
			{0.064565f,0.048621f,0.070600f,},
			{-0.010056f,-0.151392f,-0.048491f,},
		},
		{
			{-0.064012f,-0.125483f,-0.107432f,},
			{-0.156407f,-0.202150f,-0.043770f,},
			{-0.053273f,-0.123693f,-0.106407f,},
		},
		{
			{0.131632f,0.128469f,0.099118f,},
			{0.096905f,0.286837f,0.236980f,},
			{0.124240f,0.237769f,0.260742f,},
		},
		{
			{0.020715f,-0.084673f,0.071933f,},
			{-0.054097f,-0.094954f,-0.000648f,},
			{0.020282f,0.158684f,0.098264f,},
		},
		{
			{-0.062512f,-0.068096f,-0.022999f,},
			{0.000727f,-0.115891f,-0.047830f,},
			{0.020401f,0.063881f,-0.006828f,},
		},
		{
			{0.018678f,-0.024091f,0.001862f,},
			{0.014777f,0.177318f,-0.122815f,},
			{-0.018626f,-0.080844f,0.051999f,},
		},
		{
			{-0.041814f,-0.015868f,-0.062576f,},
			{-0.127880f,-0.014862f,0.038270f,},
			{-0.019116f,0.041430f,0.093835f,},
		},
		{
			{-0.046361f,0.060197f,0.012809f,},
			{-0.121772f,0.176733f,0.096205f,},
			{-0.132191f,-0.095694f,0.061793f,},
		},
		{
			{0.029984f,0.027247f,-0.025846f,},
			{0.009562f,0.057513f,-0.051780f,},
			{-0.102171f,-0.165320f,-0.045758f,},
		},
		{
			{-0.019071f,-0.076106f,0.016339f,},
			{0.091960f,-0.235464f,-0.084432f,},
			{0.064677f,0.154220f,0.033373f,},
		},
		{
			{0.035834f,-0.050147f,-0.141190f,},
			{0.006835f,-0.137878f,0.136375f,},
			{0.113238f,0.121780f,-0.118951f,},
		},
		{
			{-0.051323f,0.001970f,0.049836f,},
			{-0.020007f,-0.041056f,0.060564f,},
			{0.031786f,0.026268f,0.064045f,},
		},
		{
			{-0.028339f,0.014869f,0.173651f,},
			{-0.013991f,-0.122841f,-0.061559f,},
			{-0.070127f,-0.125219f,0.130680f,},
		},
		{
			{0.041245f,0.200212f,0.079440f,},
			{0.086634f,0.294121f,0.063870f,},
			{-0.056759f,0.067928f,0.119216f,},
		},
		{
			{0.050265f,-0.015511f,-0.024573f,},
			{0.049440f,0.033886f,-0.091824f,},
			{0.065701f,0.004159f,0.015269f,},
		},
		{
			{0.000471f,-0.071351f,-0.058029f,},
			{0.007704f,-0.041258f,0.029073f,},
			{0.049601f,0.002606f,-0.007744f,},
		},
		{
			{0.101828f,0.042794f,-0.042895f,},
			{0.155287f,0.125221f,-0.010477f,},
			{-0.001924f,0.043361f,0.069866f,},
		},
		{
			{-0.033021f,0.041727f,-0.011407f,},
			{0.103317f,-0.076180f,-0.054134f,},
			{0.019419f,0.113992f,0.005817f,},
		},
		{
			{-0.001979f,-0.071187f,0.019207f,},
			{0.019186f,0.097877f,0.030810f,},
			{0.140279f,-0.115519f,-0.019432f,},
		},
		{
			{-0.023142f,-0.014946f,-0.091332f,},
			{-0.183905f,-0.288499f,0.188938f,},
			{-0.023430f,0.133995f,-0.008254f,},
		},
		{
			{0.051390f,-0.051062f,-0.174041f,},
			{0.013545f,-0.028255f,-0.056037f,},
			{-0.046926f,-0.125960f,0.130369f,},
		},
		{
			{0.021458f,0.050537f,-0.079135f,},
			{0.148564f,0.059431f,-0.094365f,},
			{-0.057487f,-0.083022f,0.035701f,},
		},
		{
			{-0.147551f,-0.154497f,-0.075310f,},
			{-0.137299f,-0.243615f,-0.099532f,},
			{-0.048902f,-0.099058f,-0.142074f,},
		},
		{
			{0.028504f,0.011119f,0.090097f,},
			{0.040756f,-0.026082f,0.102747f,},
			{0.084157f,0.053269f,0.081891f,},
		},
		{
			{-0.051801f,-0.006597f,-0.013653f,},
			{-0.116351f,-0.162788f,0.082500f,},
			{0.032799f,0.296095f,0.127020f,},
		},
		{
			{-0.039017f,-0.075449f,0.081011f,},
			{0.043432f,0.038291f,-0.010117f,},
			{0.021061f,0.150682f,-0.020616f,},
		},
		{
			{-0.008301f,0.088177f,-0.141821f,},
			{0.000249f,-0.148483f,0.174797f,},
			{0.018100f,0.034340f,-0.055859f,},
		},
		{
			{0.077871f,0.123235f,0.029407f,},
			{0.051868f,-0.114656f,0.103794f,},
			{0.036367f,0.151095f,0.068734f,},
		},
		{
			{-0.091986f,0.069388f,0.075033f,},
			{0.004738f,0.087685f,0.149189f,},
			{-0.136392f,-0.206911f,-0.070396f,},
		},
		{
			{-0.038347f,-0.067940f,0.014297f,},
			{0.108809f,0.050111f,-0.010381f,},
			{0.076231f,0.085791f,0.008836f,},
		},
		{
			{-0.046283f,-0.073757f,0.038711f,},
			{-0.059999f,-0.144826f,-0.025617f,},
			{0.012848f,-0.122698f,-0.023780f,},
		},
	},
	{
		{
			{0.081631f,-0.451771f,-0.006781f,},
			{-0.031540f,-0.922394f,-0.064299f,},
			{0.094385f,0.000590f,0.361544f,},
		},
		{
			{-0.106729f,-0.086754f,0.071654f,},
			{-0.184006f,-0.054452f,0.155703f,},
			{-0.013528f,0.055189f,0.106933f,},
		},
		{
			{-0.098938f,-0.113661f,-0.012637f,},
			{-0.003226f,-0.087257f,-0.023038f,},
			{-0.053193f,-0.075140f,0.004478f,},
		},
		{
			{0.033430f,-0.006539f,-0.080487f,},
			{0.027335f,-0.050918f,-0.077386f,},
			{-0.049408f,-0.089833f,-0.081058f,},
		},
		{
			{0.027752f,0.011884f,-0.078121f,},
			{0.025265f,-0.070909f,-0.022463f,},
			{0.075696f,-0.043641f,0.114565f,},
		},
		{
			{0.011215f,0.030934f,0.045010f,},
			{0.012017f,-0.006956f,0.078087f,},
			{-0.024682f,0.017800f,-0.040038f,},
		},
		{
			{0.039624f,-0.020913f,0.005522f,},
			{-0.040644f,-0.045875f,0.212474f,},
			{-0.066076f,-0.032769f,-0.008520f,},
		},
		{
			{-0.074674f,0.275759f,0.035200f,},
			{0.035629f,0.450148f,-0.147389f,},
			{-0.106093f,-0.187562f,-0.287835f,},
		},
		{
			{-0.061373f,-0.024459f,-0.066230f,},
			{0.055953f,-0.025421f,-0.015411f,},
			{0.050710f,0.045961f,-0.011928f,},
		},
		{
			{0.020059f,0.042506f,-0.093695f,},
			{0.005821f,0.075492f,-0.101756f,},
			{-0.056213f,-0.077172f,0.119398f,},
		},
		{
			{-0.013910f,0.090396f,0.050193f,},
			{-0.050641f,0.054012f,0.238844f,},
			{-0.003142f,-0.121573f,-0.146141f,},
		},
		{
			{0.098014f,0.168491f,-0.080453f,},
			{0.020073f,0.367994f,-0.074660f,},
			{-0.112657f,-0.083750f,-0.018816f,},
		},
		{
			{0.030008f,0.032220f,0.032431f,},
			{-0.039705f,-0.030122f,0.056983f,},
			{-0.069135f,-0.104996f,-0.017056f,},
		},
		{
			{0.029171f,-0.285557f,0.092608f,},
			{0.092849f,-0.416095f,0.329663f,},
			{0.072766f,0.131202f,0.213565f,},
		},
		{
			{-0.008323f,0.031950f,-0.007018f,},
			{0.022530f,0.242431f,0.120526f,},
			{-0.035443f,0.076784f,-0.075470f,},
		},
		{
			{0.018487f,-0.102693f,0.122749f,},
			{-0.253471f,0.029761f,0.298888f,},
			{-0.084956f,0.323602f,-0.040353f,},
		},
		{
			{-0.044725f,-0.054582f,-0.046869f,},
			{-0.031890f,-0.048673f,-0.006681f,},
			{-0.067414f,-0.040129f,0.016729f,},
		},
		{
			{0.071300f,0.067259f,-0.014882f,},
			{-0.070826f,-0.207109f,-0.162568f,},
			{-0.040559f,0.068716f,0.037074f,},
		},
		{
			{0.040732f,-0.033590f,0.069919f,},
			{0.037253f,0.037181f,-0.114205f,},
			{-0.028190f,0.085965f,-0.034145f,},
		},
		{
			{0.065512f,0.134763f,-0.169006f,},
			{-0.038192f,-0.008579f,0.036223f,},
			{-0.009885f,-0.221584f,0.158802f,},
		},
		{
			{-0.071258f,0.034302f,0.040724f,},
			{-0.007927f,0.035324f,0.254667f,},
			{0.016904f,-0.165122f,-0.084541f,},
		},
		{
			{0.034264f,0.117670f,0.145701f,},
			{0.091233f,-0.512773f,0.096090f,},
			{0.106416f,-0.030642f,0.017367f,},
		},
		{
			{-0.052917f,0.131528f,0.146222f,},
			{-0.130678f,0.193149f,0.239326f,},
			{-0.089869f,-0.223317f,-0.265936f,},
		},
		{
			{0.002123f,0.035503f,-0.019675f,},
			{0.027971f,0.079821f,0.023997f,},
			{0.034183f,0.094294f,0.123979f,},
		},
		{
			{-0.008206f,-0.007251f,-0.034712f,},
			{0.041804f,0.035142f,0.010134f,},
			{-0.014066f,0.035134f,0.012209f,},
		},
		{
			{0.089230f,-0.075544f,-0.044782f,},
			{0.033612f,0.048825f,-0.079191f,},
			{-0.003797f,0.039329f,0.000764f,},
		},
		{
			{-0.011379f,0.063694f,-0.013631f,},
			{0.009085f,0.277313f,-0.013166f,},
			{-0.044708f,-0.130460f,-0.179024f,},
		},
		{
			{0.090151f,-0.037928f,0.002433f,},
			{-0.073124f,-0.318094f,0.208758f,},
			{-0.049236f,-0.223707f,0.506563f,},
		},
		{
			{0.009618f,-0.150009f,0.033875f,},
			{-0.140456f,-0.266810f,0.007576f,},
			{-0.100228f,0.122295f,0.124004f,},
		},
		{
			{-0.148016f,-0.116153f,0.040599f,},
			{0.155706f,-0.058248f,-0.249534f,},
			{0.121511f,0.047468f,-0.147499f,},
		},
		{
			{0.057290f,0.227095f,0.085818f,},
			{-0.100616f,0.053870f,0.191271f,},
			{0.071830f,-0.156184f,-0.126766f,},
		},
		{
			{-0.037694f,0.073948f,0.006011f,},
			{-0.013003f,0.290758f,0.118444f,},
			{0.036568f,0.062533f,-0.027342f,},
		},
	},
	{
		{
			{-0.123714f,0.523245f,0.217218f,},
			{-0.001921f,0.845960f,0.599573f,},
			{-0.280225f,-0.021762f,-0.195155f,},
		},
		{
			{0.088198f,-0.066105f,-0.141418f,},
			{-0.074259f,-0.289552f,-0.170050f,},
			{0.224722f,0.505619f,0.222279f,},
		},
		{
			{-0.139237f,-0.100826f,-0.141472f,},
			{-0.062171f,0.063583f,0.014920f,},
			{0.105711f,0.110661f,0.113586f,},
		},
		{
			{0.108707f,0.106130f,0.223919f,},
			{-0.007136f,0.174332f,0.177485f,},
			{-0.145580f,-0.071195f,-0.106982f,},
		},
		{
			{-0.005938f,0.301012f,0.137593f,},
			{-0.005630f,0.333196f,0.270455f,},
			{-0.327435f,-0.243787f,-0.206346f,},
		},
		{
			{0.070496f,0.009527f,-0.080394f,},
			{0.041782f,0.085120f,-0.035585f,},
			{0.176786f,0.118506f,0.065571f,},
		},
		{
			{-0.028121f,0.224169f,0.191876f,},
			{0.037268f,0.216609f,-0.081173f,},
			{-0.021958f,-0.080811f,-0.352786f,},
		},
		{
			{-0.046364f,-0.060131f,0.045429f,},
			{-0.054028f,-0.044678f,-0.007045f,},
			{0.117314f,-0.142461f,-0.125991f,},
		},
		{
			{0.201422f,0.220079f,0.321265f,},
			{0.118856f,0.370942f,0.206842f,},
			{-0.373796f,-0.381790f,-0.167072f,},
		},
		{
			{-0.000644f,0.009061f,0.076511f,},
			{-0.077449f,-0.041551f,0.074639f,},
			{0.006230f,-0.025066f,0.096686f,},
		},
		{
			{-0.036905f,-0.102970f,-0.160736f,},
			{0.080386f,0.083601f,-0.038051f,},
			{0.135323f,0.130580f,0.018720f,},
		},
		{
			{0.002827f,-0.334170f,0.010943f,},
			{-0.255756f,-0.598679f,0.202790f,},
			{-0.003148f,-0.025109f,0.032513f,},
		},
		{
			{-0.000921f,0.016797f,-0.092969f,},
			{0.026776f,0.011307f,-0.018481f,},
			{0.162436f,0.089600f,-0.044383f,},
		},
		{
			{-0.001081f,0.416746f,-0.176953f,},
			{-0.038308f,0.130489f,-0.209982f,},
			{0.129270f,0.162359f,-0.201998f,},
		},
		{
			{0.200841f,0.124812f,0.079979f,},
			{0.074124f,-0.156046f,0.058443f,},
			{-0.009831f,0.063360f,0.049055f,},
		},
		{
			{-0.001301f,0.154075f,0.095396f,},
			{0.023127f,-0.123597f,-0.099913f,},
			{-0.142318f,-0.442364f,-0.129064f,},
		},
		{
			{-0.048733f,0.008120f,-0.031363f,},
			{-0.034057f,-0.066176f,-0.095138f,},
			{0.083696f,0.064163f,-0.023015f,},
		},
		{
			{-0.056514f,0.108309f,0.075068f,},
			{-0.087867f,-0.125336f,-0.124408f,},
			{-0.142703f,-0.211370f,-0.125373f,},
		},
		{
			{0.028382f,-0.095803f,0.016161f,},
			{-0.015581f,-0.264050f,0.013962f,},
			{0.255250f,0.271638f,0.074800f,},
		},
		{
			{-0.022386f,0.156996f,0.162580f,},
			{-0.016061f,0.252165f,-0.255284f,},
			{-0.221629f,-0.096908f,0.035673f,},
		},
		{
			{-0.008387f,-0.278397f,-0.246783f,},
			{0.107029f,-0.085627f,0.002126f,},
			{0.139999f,0.083603f,-0.022430f,},
		},
		{
			{-0.289515f,0.142400f,-0.134227f,},
			{-0.054298f,0.138148f,0.084120f,},
			{-0.117400f,-0.098056f,-0.043900f,},
		},
		{
			{0.087387f,0.047257f,-0.081623f,},
			{-0.397099f,-0.633922f,0.096231f,},
			{0.289359f,0.532220f,0.186686f,},
		},
		{
			{-0.007695f,-0.089663f,-0.010723f,},
			{-0.025231f,0.053325f,0.074745f,},
			{0.013530f,-0.068098f,-0.080456f,},
		},
		{
			{0.080577f,0.010319f,-0.037401f,},
			{0.014631f,-0.013016f,-0.018886f,},
			{0.143214f,0.072907f,0.025274f,},
		},
		{
			{0.058536f,0.050781f,0.048965f,},
			{0.014073f,-0.215806f,0.028066f,},
			{0.141394f,-0.176340f,-0.153906f,},
		},
		{
			{0.078664f,-0.071880f,0.051597f,},
			{-0.020627f,-0.016958f,0.040193f,},
			{-0.002736f,0.053027f,0.084665f,},
		},
		{
			{-0.039265f,-0.010958f,-0.183878f,},
			{0.199287f,0.174967f,-0.286340f,},
			{0.132638f,0.620508f,-0.180977f,},
		},
		{
			{0.104552f,0.032521f,-0.151952f,},
			{0.067902f,-0.127039f,-0.168599f,},
			{0.306892f,0.233826f,0.039651f,},
		},
		{
			{0.053289f,0.019005f,-0.194237f,},
			{-0.012285f,-0.018838f,0.002988f,},
			{0.089690f,0.188744f,0.241436f,},
		},
		{
			{0.040230f,-0.132999f,-0.132998f,},
			{0.087310f,-0.079010f,-0.191401f,},
			{0.170347f,0.212813f,0.086281f,},
		},
		{
			{-0.025493f,-0.176904f,-0.061601f,},
			{0.012515f,-0.042854f,-0.074452f,},
			{0.085856f,0.125583f,0.141625f,},
		},
	},
	{
		{
			{0.346949f,0.012975f,-0.391288f,},
			{0.377947f,0.239355f,-0.411961f,},
			{-0.294406f,0.124123f,-0.128962f,},
		},
		{
			{0.271838f,-0.174556f,0.043251f,},
			{0.162967f,0.087119f,0.014773f,},
			{0.139726f,0.055244f,-0.104456f,},
		},
		{
			{0.086411f,0.109693f,0.030153f,},
			{0.063409f,0.192100f,0.104398f,},
			{-0.065508f,-0.042931f,0.022223f,},
		},
		{
			{-0.045244f,0.084883f,0.064192f,},
			{0.026422f,-0.126984f,-0.138126f,},
			{-0.028971f,-0.084471f,-0.184180f,},
		},
		{
			{-0.167575f,0.198646f,0.121749f,},
			{-0.049935f,-0.265408f,-0.176845f,},
			{-0.152836f,-0.187520f,-0.101633f,},
		},
		{
			{0.010317f,0.114911f,0.090293f,},
			{-0.081613f,-0.104055f,0.008242f,},
			{-0.126117f,-0.235422f,-0.129624f,},
		},
		{
			{0.028775f,-0.358553f,0.121602f,},
			{0.111268f,-0.061049f,-0.088608f,},
			{0.113915f,0.296576f,-0.145398f,},
		},
		{
			{-0.121595f,0.152480f,-0.004130f,},
			{-0.022279f,-0.087936f,-0.053235f,},
			{-0.103063f,0.082349f,-0.011634f,},
		},
		{
			{0.056881f,0.210039f,0.140304f,},
			{0.064804f,-0.026123f,-0.080145f,},
			{0.162839f,0.019865f,-0.008557f,},
		},
		{
			{-0.121960f,-0.036754f,-0.042664f,},
			{0.032936f,0.018997f,0.135754f,},
			{0.135134f,0.008511f,0.011033f,},
		},
		{
			{-0.103952f,-0.021382f,0.173049f,},
			{-0.007581f,-0.258966f,-0.131811f,},
			{-0.074770f,0.077387f,-0.102956f,},
		},
		{
			{-0.134405f,0.090369f,0.163789f,},
			{0.040911f,-0.444958f,0.403575f,},
			{-0.049913f,-0.099450f,-0.229618f,},
		},
		{
			{0.074753f,0.071467f,0.057977f,},
			{0.011222f,-0.062748f,-0.005133f,},
			{-0.039343f,-0.047579f,-0.136106f,},
		},
		{
			{0.241186f,0.004750f,-0.056894f,},
			{-0.045476f,0.448104f,-0.350343f,},
			{-0.400003f,0.363943f,0.132072f,},
		},
		{
			{0.033986f,-0.114917f,0.126216f,},
			{0.001827f,-0.051721f,0.056705f,},
			{0.149814f,0.077333f,-0.083886f,},
		},
		{
			{0.236810f,-0.099347f,0.069584f,},
			{0.148731f,-0.304699f,-0.058036f,},
			{-0.000205f,-0.104661f,-0.010439f,},
		},
		{
			{0.027499f,0.042661f,0.062496f,},
			{-0.053076f,0.002611f,0.064738f,},
			{-0.113044f,-0.134043f,-0.059288f,},
		},
		{
			{-0.133780f,-0.279408f,-0.089173f,},
			{0.084412f,-0.013968f,-0.082729f,},
			{0.052842f,0.069515f,0.165831f,},
		},
		{
			{-0.025478f,-0.132243f,-0.169087f,},
			{-0.117064f,0.003286f,-0.016716f,},
			{-0.097738f,-0.112935f,0.217185f,},
		},
		{
			{-0.005262f,0.036503f,-0.018469f,},
			{0.051941f,-0.094876f,0.161286f,},
			{0.282594f,-0.127112f,-0.143636f,},
		},
		{
			{0.045864f,0.294934f,0.142542f,},
			{0.164861f,-0.280136f,-0.141894f,},
			{0.008046f,-0.129235f,-0.218648f,},
		},
		{
			{0.050680f,-0.308193f,0.084766f,},
			{0.387662f,0.510098f,-0.454341f,},
			{0.000740f,0.182672f,0.142644f,},
		},
		{
			{-0.155002f,-0.808739f,0.410148f,},
			{0.075440f,-0.177682f,-0.061694f,},
			{0.143288f,0.395734f,-0.273465f,},
		},
		{
			{-0.015365f,0.291216f,0.088470f,},
			{-0.150752f,0.026655f,0.070741f,},
			{-0.224358f,-0.206646f,-0.024098f,},
		},
		{
			{0.005385f,0.141847f,0.106563f,},
			{-0.019285f,-0.038997f,0.066642f,},
			{-0.124744f,-0.161053f,-0.033743f,},
		},
		{
			{-0.111878f,0.167961f,-0.104344f,},
			{-0.121602f,-0.193564f,0.008012f,},
			{-0.226960f,-0.146239f,-0.116111f,},
		},
		{
			{-0.025915f,-0.013610f,0.122476f,},
			{-0.235556f,-0.324668f,0.060987f,},
			{0.043570f,-0.087347f,-0.100644f,},
		},
		{
			{-0.084221f,0.235520f,0.064323f,},
			{0.224018f,-0.017038f,-0.015894f,},
			{0.049290f,-0.098010f,-0.197229f,},
		},
		{
			{0.145977f,0.037409f,-0.224698f,},
			{0.095926f,0.121951f,0.023142f,},
			{-0.057668f,-0.091735f,0.127085f,},
		},
		{
			{0.005592f,-0.103774f,-0.293162f,},
			{-0.042536f,0.419371f,-0.037459f,},
			{0.020790f,0.205648f,0.190816f,},
		},
		{
			{-0.057057f,-0.051808f,-0.018474f,},
			{-0.025068f,-0.338164f,-0.128095f,},
			{0.105133f,-0.085346f,-0.026988f,},
		},
		{
			{-0.003439f,0.198702f,0.197512f,},
			{-0.153178f,0.069439f,0.202403f,},
			{0.015437f,-0.170809f,-0.016368f,},
		},
	},
	{
		{
			{-0.532694f,0.478401f,0.399173f,},
			{-0.643277f,-0.408075f,0.324351f,},
			{0.374756f,0.002412f,-0.140676f,},
		},
		{
			{0.001752f,-0.135698f,-0.128944f,},
			{0.018049f,0.371927f,-0.107727f,},
			{0.065066f,-0.117201f,-0.025390f,},
		},
		{
			{-0.042168f,0.116135f,-0.063339f,},
			{-0.115050f,0.104448f,0.108938f,},
			{0.091716f,-0.022184f,-0.013539f,},
		},
		{
			{0.171109f,0.218916f,-0.052477f,},
			{-0.030752f,-0.059419f,-0.116268f,},
			{-0.087665f,-0.112768f,-0.050470f,},
		},
		{
			{-0.100469f,0.134570f,0.101217f,},
			{-0.395038f,-0.500645f,-0.060063f,},
			{0.159530f,0.136080f,0.023548f,},
		},
		{
			{-0.150338f,0.111130f,0.037777f,},
			{-0.096778f,-0.025784f,0.011775f,},
			{0.032493f,-0.040449f,-0.042945f,},
		},
		{
			{-0.068704f,-0.386670f,0.274175f,},
			{0.011991f,-0.251106f,0.163960f,},
			{-0.095174f,0.085922f,0.123008f,},
		},
		{
			{-0.084637f,0.092487f,0.179551f,},
			{0.030099f,-0.157816f,0.033597f,},
			{-0.287481f,0.130916f,0.020498f,},
		},
		{
			{0.228265f,0.233614f,-0.082883f,},
			{-0.136575f,0.120621f,-0.035355f,},
			{-0.123267f,-0.028058f,0.016304f,},
		},
		{
			{0.114613f,-0.252785f,-0.021840f,},
			{0.027268f,-0.001685f,-0.025976f,},
			{-0.067530f,0.143322f,0.067970f,},
		},
		{
			{-0.099510f,0.182022f,0.041727f,},
			{-0.013357f,0.019642f,-0.066078f,},
			{-0.084773f,-0.180124f,-0.004409f,},
		},
		{
			{-0.061272f,0.262516f,-0.191484f,},
			{0.290284f,0.059265f,-0.067623f,},
			{-0.057172f,-0.085319f,-0.048541f,},
		},
		{
			{-0.119478f,0.153275f,-0.105438f,},
			{-0.117191f,0.074758f,0.012087f,},
			{-0.075894f,-0.034676f,0.001931f,},
		},
		{
			{-0.129878f,-0.339404f,0.283544f,},
			{-0.094485f,-0.068067f,0.293026f,},
			{-0.009429f,0.096961f,0.008638f,},
		},
		{
			{-0.061485f,-0.398063f,0.064353f,},
			{0.215276f,-0.037435f,0.002577f,},
			{-0.176985f,0.033724f,0.102845f,},
		},
		{
			{-0.056833f,0.038037f,-0.010366f,},
			{-0.024935f,0.165692f,-0.203119f,},
			{0.298928f,-0.041389f,-0.012225f,},
		},
		{
			{-0.099193f,0.028235f,-0.026587f,},
			{-0.137029f,0.000082f,0.034675f,},
			{0.014473f,0.011580f,-0.061452f,},
		},
		{
			{0.184736f,-0.177230f,0.076071f,},
			{0.041842f,-0.086703f,-0.127716f,},
			{0.211017f,0.173654f,-0.055585f,},
		},
		{
			{-0.073364f,-0.188125f,0.248988f,},
			{0.293172f,-0.125347f,-0.208827f,},
			{0.162415f,0.040188f,-0.072881f,},
		},
		{
			{0.265511f,-0.080942f,-0.248495f,},
			{-0.191853f,-0.107392f,0.142082f,},
			{-0.080852f,-0.003461f,0.045427f,},
		},
		{
			{-0.249083f,0.503175f,-0.233986f,},
			{-0.122059f,0.611454f,-0.098672f,},
			{-0.113248f,-0.094557f,0.007542f,},
		},
		{
			{0.448421f,0.093468f,-0.020784f,},
			{-0.370082f,0.457068f,-0.157522f,},
			{-0.040394f,0.092058f,-0.084281f,},
		},
		{
			{0.049487f,-0.434809f,0.147648f,},
			{0.223362f,-0.134585f,0.005361f,},
			{-0.194309f,-0.129604f,0.026992f,},
		},
		{
			{0.027415f,0.162970f,0.042173f,},
			{-0.019382f,0.050944f,-0.073228f,},
			{0.125933f,0.139719f,0.012603f,},
		},
		{
			{-0.078023f,0.056798f,-0.015009f,},
			{-0.006606f,0.028982f,-0.043833f,},
			{0.000802f,0.007246f,-0.028828f,},
		},
		{
			{-0.282940f,0.094502f,0.326502f,},
			{-0.023090f,-0.038180f,-0.008881f,},
			{0.005737f,0.383243f,0.011616f,},
		},
		{
			{-0.039289f,0.002460f,0.052745f,},
			{0.324567f,-0.169636f,0.002536f,},
			{-0.030386f,-0.279472f,-0.072359f,},
		},
		{
			{-0.010828f,0.204961f,-0.339921f,},
			{-0.265870f,0.413301f,-0.087732f,},
			{-0.186919f,0.031879f,0.123166f,},
		},
		{
			{-0.232614f,-0.092730f,0.008235f,},
			{-0.146127f,0.255872f,0.078053f,},
			{0.154167f,0.189973f,-0.070931f,},
		},
		{
			{0.167640f,-0.116793f,0.021925f,},
			{0.107348f,0.108189f,0.064609f,},
			{-0.083373f,-0.062154f,-0.100117f,},
		},
		{
			{0.078153f,0.068198f,-0.133153f,},
			{-0.015999f,0.266784f,-0.110376f,},
			{0.032448f,-0.188444f,0.016280f,},
		},
		{
			{0.061937f,0.065197f,-0.178776f,},
			{-0.010872f,0.214357f,0.077333f,},
			{-0.103258f,-0.083446f,0.007941f,},
		},
	},
	{
		{
			{-0.020378f,0.116711f,0.257602f,},
			{0.236536f,0.380092f,0.312825f,},
			{0.306284f,0.607137f,0.370932f,},
		},
		{
			{0.103941f,0.068060f,-0.004057f,},
			{-0.059438f,-0.126367f,-0.054715f,},
			{-0.270842f,-0.125983f,-0.016028f,},
		},
		{
			{0.080147f,-0.013974f,0.045673f,},
			{0.009508f,0.005850f,-0.003417f,},
			{-0.039802f,-0.009178f,0.004359f,},
		},
		{
			{-0.057483f,0.023998f,0.042053f,},
			{0.183488f,0.281372f,0.276304f,},
			{0.440328f,0.453665f,0.194517f,},
		},
		{
			{-0.120252f,0.053424f,-0.013565f,},
			{0.272581f,0.307475f,0.199833f,},
			{0.269172f,0.164972f,-0.015953f,},
		},
		{
			{0.061843f,0.008164f,0.013138f,},
			{-0.008831f,0.033295f,0.015281f,},
			{0.022521f,-0.041579f,-0.019580f,},
		},
		{
			{-0.026709f,-0.077186f,-0.001302f,},
			{0.007847f,0.051069f,-0.119531f,},
			{0.028149f,0.104934f,-0.108025f,},
		},
		{
			{0.006269f,-0.000357f,0.083103f,},
			{-0.010056f,-0.017306f,0.105526f,},
			{-0.191651f,-0.029299f,0.145851f,},
		},
		{
			{-0.131652f,0.058231f,-0.057453f,},
			{0.248919f,0.235601f,0.210252f,},
			{0.406177f,0.295579f,0.064182f,},
		},
		{
			{-0.053307f,-0.024734f,0.015455f,},
			{-0.046557f,-0.045713f,0.106358f,},
			{-0.128015f,-0.079343f,0.039129f,},
		},
		{
			{0.017555f,-0.085613f,-0.030718f,},
			{-0.017062f,-0.112968f,-0.182855f,},
			{0.176085f,0.130011f,0.029510f,},
		},
		{
			{0.072452f,-0.055286f,0.041942f,},
			{-0.175825f,-0.199896f,0.070060f,},
			{-0.204816f,-0.007318f,0.070980f,},
		},
		{
			{0.036886f,0.044667f,-0.008836f,},
			{0.001288f,0.039914f,-0.011231f,},
			{-0.023074f,-0.015446f,0.028771f,},
		},
		{
			{0.052963f,-0.024856f,0.037099f,},
			{0.052531f,0.034582f,-0.097569f,},
			{-0.077218f,0.138399f,-0.110383f,},
		},
		{
			{-0.084868f,-0.056983f,-0.002275f,},
			{-0.038489f,-0.098539f,-0.072335f,},
			{-0.043908f,-0.014523f,-0.074368f,},
		},
		{
			{0.053701f,0.059745f,-0.066154f,},
			{0.027868f,-0.004045f,-0.044364f,},
			{-0.010668f,-0.021064f,-0.113994f,},
		},
		{
			{0.085729f,0.073048f,0.043481f,},
			{-0.004787f,0.005085f,-0.007053f,},
			{-0.024863f,0.028503f,0.002077f,},
		},
		{
			{0.047661f,0.049493f,0.037712f,},
			{0.115104f,0.055991f,0.065075f,},
			{-0.005221f,0.109892f,0.055783f,},
		},
		{
			{0.049217f,0.011515f,0.112937f,},
			{-0.109829f,-0.100085f,-0.028679f,},
			{-0.133166f,0.042291f,0.136902f,},
		},
		{
			{-0.064958f,0.102544f,-0.018970f,},
			{0.141953f,0.107174f,-0.055624f,},
			{0.353482f,-0.146018f,-0.152441f,},
		},
		{
			{-0.026298f,-0.075402f,-0.161245f,},
			{-0.209928f,-0.194355f,-0.071253f,},
			{-0.148771f,0.023481f,-0.041669f,},
		},
		{
			{0.007192f,-0.008363f,-0.040172f,},
			{0.108482f,0.060988f,0.017861f,},
			{0.052211f,0.258344f,0.113954f,},
		},
		{
			{0.126759f,-0.186788f,0.032952f,},
			{0.004268f,-0.248851f,0.008522f,},
			{-0.757461f,-0.050652f,0.059012f,},
		},
		{
			{-0.036693f,0.004602f,0.001274f,},
			{-0.013415f,-0.010698f,-0.028156f,},
			{0.060257f,-0.080420f,-0.016820f,},
		},
		{
			{0.076394f,0.033931f,0.005896f,},
			{0.029116f,-0.005851f,0.015863f,},
			{0.003109f,-0.012094f,0.038202f,},
		},
		{
			{0.038467f,-0.036268f,-0.056407f,},
			{-0.070366f,-0.093524f,0.057079f,},
			{-0.296983f,-0.023654f,0.035731f,},
		},
		{
			{-0.028083f,-0.075107f,0.057608f,},
			{-0.080123f,-0.088817f,-0.014220f,},
			{0.102176f,0.087083f,0.070955f,},
		},
		{
			{0.022742f,0.076247f,0.030836f,},
			{0.026419f,0.110027f,-0.000646f,},
			{0.048739f,0.007238f,-0.211470f,},
		},
		{
			{0.208484f,0.121118f,0.086870f,},
			{-0.026040f,-0.048259f,-0.066403f,},
			{-0.243072f,-0.063611f,0.016254f,},
		},
		{
			{-0.061482f,-0.009525f,0.011899f,},
			{-0.010129f,-0.037800f,0.059940f,},
			{-0.079110f,0.011731f,0.066081f,},
		},
		{
			{0.071779f,0.069710f,-0.066718f,},
			{0.040335f,-0.158848f,-0.177093f,},
			{0.075067f,-0.116089f,0.064064f,},
		},
		{
			{0.009110f,-0.007629f,-0.044462f,},
			{-0.097963f,-0.129522f,-0.157702f,},
			{-0.047771f,-0.238982f,-0.076598f,},
		},
	},
	{
		{
			{0.297855f,-0.027172f,0.137057f,},
			{-0.023772f,-0.297270f,0.098344f,},
			{-0.117970f,-0.120046f,0.031872f,},
		},
		{
			{-0.000041f,-0.026937f,-0.001969f,},
			{0.266219f,0.041166f,-0.074240f,},
			{-0.215880f,-0.066123f,0.019941f,},
		},
		{
			{0.131272f,0.105429f,-0.000551f,},
			{0.125924f,0.047000f,-0.012718f,},
			{-0.002631f,0.036363f,0.048006f,},
		},
		{
			{-0.032317f,-0.148400f,0.028665f,},
			{-0.152400f,-0.197791f,-0.009845f,},
			{0.020907f,-0.064152f,0.015698f,},
		},
		{
			{-0.043727f,-0.004727f,-0.015428f,},
			{-0.199443f,-0.178915f,0.058274f,},
			{0.294178f,0.067544f,-0.004881f,},
		},
		{
			{-0.047654f,-0.009295f,-0.016894f,},
			{-0.084497f,-0.049983f,0.016641f,},
			{0.022022f,-0.075628f,-0.056256f,},
		},
		{
			{0.019401f,-0.086253f,0.006135f,},
			{-0.061066f,-0.116532f,0.030753f,},
			{0.002131f,0.159972f,0.025853f,},
		},
		{
			{-0.040189f,0.019605f,0.031052f,},
			{-0.092700f,-0.054418f,-0.038161f,},
			{0.035718f,0.011093f,-0.033699f,},
		},
		{
			{-0.149864f,-0.043204f,0.118849f,},
			{-0.435454f,-0.231545f,0.095530f,},
			{0.088526f,-0.036105f,0.082878f,},
		},
		{
			{0.005210f,-0.025868f,-0.006733f,},
			{0.059642f,-0.070325f,0.039403f,},
			{0.106398f,-0.064951f,-0.037515f,},
		},
		{
			{0.003630f,-0.062716f,0.012577f,},
			{-0.029440f,-0.050890f,-0.028747f,},
			{-0.057069f,0.023631f,0.005050f,},
		},
		{
			{-0.101036f,-0.010926f,-0.002762f,},
			{0.425973f,-0.190500f,-0.028888f,},
			{0.097971f,-0.061004f,-0.016751f,},
		},
		{
			{-0.002616f,-0.023349f,0.040541f,},
			{0.021091f,0.012519f,0.026505f,},
			{-0.050140f,-0.005733f,-0.046296f,},
		},
		{
			{-0.043124f,-0.068516f,0.013034f,},
			{0.259646f,-0.053160f,-0.092711f,},
			{-0.259179f,-0.066550f,-0.071703f,},
		},
		{
			{-0.081722f,-0.024124f,0.023587f,},
			{0.038782f,-0.076318f,-0.047040f,},
			{-0.057771f,-0.095869f,-0.015643f,},
		},
		{
			{-0.045996f,-0.065284f,0.040599f,},
			{-0.025284f,-0.017522f,0.077714f,},
			{0.169647f,-0.028848f,-0.018442f,},
		},
		{
			{0.072651f,0.010587f,0.007548f,},
			{0.087860f,0.021904f,0.049701f,},
			{0.001488f,-0.040698f,0.037192f,},
		},
		{
			{0.046435f,-0.014579f,-0.007055f,},
			{0.190633f,0.092327f,-0.033884f,},
			{0.195781f,0.079595f,-0.026260f,},
		},
		{
			{0.034071f,-0.095156f,-0.011656f,},
			{0.418123f,0.144744f,-0.051910f,},
			{-0.371314f,0.002234f,0.005387f,},
		},
		{
			{0.044140f,0.091150f,-0.098620f,},
			{-0.252740f,0.143267f,-0.045340f,},
			{0.180633f,-0.025716f,0.037927f,},
		},
		{
			{0.122508f,-0.002720f,0.101473f,},
			{0.001481f,-0.169146f,-0.026870f,},
			{-0.092854f,-0.057883f,0.033937f,},
		},
		{
			{0.009285f,0.038392f,-0.025790f,},
			{0.155332f,0.008462f,-0.096403f,},
			{-0.048450f,-0.042689f,-0.099801f,},
		},
		{
			{-0.004713f,-0.115984f,-0.025979f,},
			{0.539668f,-0.270549f,-0.119638f,},
			{-0.063037f,-0.038190f,0.020703f,},
		},
		{
			{-0.083420f,-0.040882f,0.010242f,},
			{-0.225117f,-0.029983f,-0.021631f,},
			{-0.051134f,-0.029033f,0.044055f,},
		},
		{
			{0.001263f,0.038976f,-0.014523f,},
			{-0.009258f,-0.042272f,-0.005386f,},
			{-0.031770f,0.000991f,-0.027064f,},
		},
		{
			{-0.002756f,0.000608f,0.051102f,},
			{0.112744f,-0.115104f,0.036243f,},
			{0.175903f,0.099518f,0.018287f,},
		},
		{
			{0.008879f,0.017017f,0.016094f,},
			{-0.070690f,0.064314f,0.021244f,},
			{0.040863f,-0.070466f,0.008269f,},
		},
		{
			{0.001686f,-0.047697f,-0.036426f,},
			{0.115790f,0.097751f,-0.021954f,},
			{-0.158599f,0.077033f,0.024036f,},
		},
		{
			{0.022910f,0.075398f,-0.003232f,},
			{0.271921f,0.338643f,-0.024608f,},
			{-0.235711f,-0.065407f,0.038726f,},
		},
		{
			{-0.041330f,0.019994f,0.027012f,},
			{0.132057f,0.140888f,-0.046693f,},
			{-0.165091f,-0.107355f,0.020879f,},
		},
		{
			{0.025098f,0.060147f,-0.017249f,},
			{-0.047300f,0.235412f,0.017866f,},
			{-0.138174f,-0.084744f,-0.039223f,},
		},
		{
			{-0.075163f,-0.027027f,-0.010265f,},
			{-0.225511f,0.030522f,0.001057f,},
			{-0.087424f,-0.085382f,0.012391f,},
		},
	},
	{
		{
			{0.178030f,0.212036f,-0.022224f,},
			{-0.093884f,-0.795138f,0.278679f,},
			{0.280522f,-0.102200f,-0.170502f,},
		},
		{
			{-0.129786f,0.031017f,-0.090865f,},
			{0.000752f,0.079877f,0.128665f,},
			{-0.198107f,-0.006897f,0.181721f,},
		},
		{
			{0.189080f,0.191975f,0.159455f,},
			{0.099979f,-0.156184f,0.051201f,},
			{0.055923f,-0.118249f,0.035905f,},
		},
		{
			{-0.123351f,-0.095606f,-0.173394f,},
			{0.003221f,0.176382f,0.202340f,},
			{-0.130343f,0.015482f,0.099677f,},
		},
		{
			{0.172804f,0.161791f,0.005847f,},
			{0.050017f,-0.287213f,-0.050407f,},
			{0.156584f,0.239854f,0.165619f,},
		},
		{
			{0.103958f,0.012005f,-0.020941f,},
			{-0.026798f,-0.161268f,-0.064526f,},
			{0.054720f,0.033702f,-0.030651f,},
		},
		{
			{-0.030700f,-0.082370f,-0.003067f,},
			{-0.003345f,0.209757f,-0.363939f,},
			{-0.055439f,-0.058813f,-0.135332f,},
		},
		{
			{0.004237f,-0.073391f,0.080084f,},
			{-0.008159f,0.152993f,-0.142209f,},
			{0.055956f,-0.074130f,-0.203715f,},
		},
		{
			{0.012509f,-0.088004f,-0.158831f,},
			{-0.077902f,0.396209f,-0.006121f,},
			{-0.165496f,-0.055196f,-0.033706f,},
		},
		{
			{-0.002915f,-0.004582f,0.031837f,},
			{0.051227f,0.174902f,-0.129217f,},
			{-0.027234f,0.112501f,0.096183f,},
		},
		{
			{0.100003f,-0.035384f,0.004060f,},
			{-0.037105f,-0.086364f,0.199904f,},
			{0.102373f,-0.009898f,-0.061074f,},
		},
		{
			{0.001289f,-0.112376f,0.026309f,},
			{-0.065400f,-0.099226f,0.532322f,},
			{-0.004903f,0.116804f,-0.287921f,},
		},
		{
			{0.047996f,0.031243f,-0.017046f,},
			{-0.076452f,-0.140424f,0.045863f,},
			{-0.030127f,-0.141060f,-0.000385f,},
		},
		{
			{0.025066f,-0.022400f,0.023733f,},
			{0.121700f,-0.358062f,-0.233392f,},
			{0.140057f,-0.063178f,-0.014732f,},
		},
		{
			{-0.119704f,-0.232156f,-0.127532f,},
			{-0.004875f,0.447146f,-0.068241f,},
			{-0.181821f,0.211953f,0.057982f,},
		},
		{
			{-0.053959f,-0.064030f,-0.150655f,},
			{-0.240395f,-0.072119f,0.195473f,},
			{0.006268f,0.092125f,0.132166f,},
		},
		{
			{0.015615f,0.060870f,0.020161f,},
			{-0.054581f,-0.164906f,-0.052597f,},
			{0.020393f,-0.097515f,-0.046510f,},
		},
		{
			{-0.059834f,0.120041f,0.107488f,},
			{0.072393f,0.031022f,-0.024123f,},
			{-0.098856f,0.015500f,0.161053f,},
		},
		{
			{-0.081599f,0.013004f,0.053920f,},
			{0.027138f,-0.225538f,0.033526f,},
			{-0.020092f,0.354948f,-0.088811f,},
		},
		{
			{-0.044643f,0.122608f,-0.037009f,},
			{-0.036678f,0.297032f,-0.282291f,},
			{-0.133878f,-0.376609f,0.197044f,},
		},
		{
			{0.101322f,-0.132304f,-0.022958f,},
			{-0.138880f,-0.328247f,0.739895f,},
			{0.131411f,0.033825f,0.136632f,},
		},
		{
			{0.000120f,0.357547f,0.111978f,},
			{0.082786f,-0.164292f,0.029712f,},
			{-0.074601f,-0.654205f,0.419850f,},
		},
		{
			{-0.086254f,0.054976f,0.046779f,},
			{0.087899f,0.321529f,-0.033024f,},
			{-0.025899f,-0.019073f,0.147866f,},
		},
		{
			{0.167123f,0.113113f,-0.007234f,},
			{-0.005804f,-0.190496f,0.013162f,},
			{0.159659f,0.025404f,0.070021f,},
		},
		{
			{0.033570f,0.030222f,-0.042721f,},
			{0.030619f,-0.140705f,-0.022339f,},
			{0.002321f,-0.029341f,-0.007112f,},
		},
		{
			{0.083663f,-0.182461f,0.080201f,},
			{-0.050063f,-0.400980f,-0.008706f,},
			{0.025411f,0.213417f,-0.023033f,},
		},
		{
			{-0.051232f,-0.234527f,-0.086373f,},
			{-0.044837f,0.170526f,0.059766f,},
			{0.023251f,0.147045f,-0.193870f,},
		},
		{
			{0.098481f,0.158855f,-0.020447f,},
			{0.041865f,-0.269805f,0.300132f,},
			{-0.072139f,-0.056389f,0.340491f,},
		},
		{
			{0.045763f,0.054980f,0.124418f,},
			{-0.001109f,-0.466064f,0.125064f,},
			{-0.048323f,0.123591f,0.142979f,},
		},
		{
			{0.019638f,0.062946f,0.051021f,},
			{0.071008f,0.082703f,-0.126703f,},
			{-0.104932f,-0.089300f,-0.063109f,},
		},
		{
			{-0.017087f,-0.089210f,-0.075374f,},
			{-0.035814f,0.005258f,0.278696f,},
			{-0.023549f,-0.029980f,0.076269f,},
		},
		{
			{0.015308f,0.024138f,-0.067333f,},
			{0.022245f,0.060684f,-0.031965f,},
			{0.033423f,-0.003193f,-0.044340f,},
		},
	},
	{
		{
			{0.061296f,0.074742f,0.012297f,},
			{-0.251727f,-0.021390f,0.028528f,},
			{-0.371596f,-0.124195f,-0.048389f,},
		},
		{
			{0.033746f,-0.067117f,-0.097032f,},
			{0.143736f,0.051503f,-0.006982f,},
			{-0.035344f,-0.141103f,-0.020296f,},
		},
		{
			{0.053965f,-0.013748f,-0.083525f,},
			{-0.133560f,-0.007253f,-0.067593f,},
			{-0.211177f,-0.166885f,-0.120966f,},
		},
		{
			{0.031817f,0.066138f,0.026518f,},
			{0.096523f,0.075586f,0.075062f,},
			{0.187435f,0.172783f,0.065528f,},
		},
		{
			{-0.027134f,0.137741f,0.037248f,},
			{-0.214898f,-0.111181f,-0.020280f,},
			{-0.001287f,0.055680f,-0.003544f,},
		},
		{
			{0.003916f,-0.006091f,-0.061320f,},
			{-0.127733f,-0.129857f,-0.014606f,},
			{-0.102978f,-0.128389f,-0.081712f,},
		},
		{
			{-0.002815f,-0.110836f,0.062657f,},
			{-0.008035f,-0.073742f,-0.047113f,},
			{0.025203f,0.129323f,-0.017056f,},
		},
		{
			{-0.037707f,0.088808f,0.007950f,},
			{-0.137183f,0.084516f,0.015803f,},
			{-0.131602f,0.141991f,-0.038778f,},
		},
		{
			{-0.116147f,0.045977f,-0.064900f,},
			{-0.023478f,0.095951f,-0.003597f,},
			{0.062433f,0.190886f,0.060243f,},
		},
		{
			{-0.140889f,-0.003966f,0.008005f,},
			{0.102387f,-0.057430f,-0.045163f,},
			{0.012198f,0.121388f,0.041675f,},
		},
		{
			{-0.093031f,-0.001417f,0.034999f,},
			{-0.175120f,-0.083458f,0.035425f,},
			{0.045497f,0.193544f,-0.000203f,},
		},
		{
			{0.069565f,0.054817f,-0.048292f,},
			{0.098026f,0.010192f,-0.014616f,},
			{0.104776f,-0.096758f,-0.145884f,},
		},
		{
			{0.080692f,0.072519f,0.025095f,},
			{-0.028642f,0.069955f,-0.025067f,},
			{-0.054890f,0.019810f,0.025274f,},
		},
		{
			{0.061922f,0.054777f,0.183094f,},
			{-0.083179f,0.061321f,-0.097685f,},
			{-0.311411f,0.183242f,-0.029026f,},
		},
		{
			{-0.095118f,-0.024890f,-0.059427f,},
			{0.109650f,0.020541f,-0.039844f,},
			{0.122003f,0.096758f,-0.076353f,},
		},
		{
			{0.059782f,-0.205595f,-0.106959f,},
			{0.111216f,-0.098491f,-0.036412f,},
			{0.180926f,-0.042726f,-0.036444f,},
		},
		{
			{0.063864f,0.043218f,0.034738f,},
			{-0.065419f,-0.046647f,-0.021456f,},
			{-0.095371f,-0.082512f,0.006898f,},
		},
		{
			{0.062408f,-0.101378f,0.015966f,},
			{0.213629f,-0.049748f,0.011915f,},
			{0.131282f,-0.015958f,0.004915f,},
		},
		{
			{0.044432f,-0.111084f,-0.039585f,},
			{0.064969f,-0.139988f,0.012722f,},
			{0.151644f,-0.032649f,0.042934f,},
		},
		{
			{0.029694f,0.064909f,0.033422f,},
			{0.039711f,-0.046257f,0.040000f,},
			{-0.009903f,-0.277835f,0.056610f,},
		},
		{
			{-0.021680f,0.118894f,-0.068539f,},
			{-0.154618f,0.282995f,-0.079179f,},
			{-0.151627f,0.420768f,0.007019f,},
		},
		{
			{0.043693f,-0.003854f,0.049402f,},
			{0.212312f,0.098512f,-0.065488f,},
			{-0.143500f,0.120317f,0.014267f,},
		},
		{
			{-0.080808f,-0.126474f,0.067810f,},
			{0.217378f,-0.080656f,-0.186151f,},
			{0.044621f,-0.029608f,-0.105809f,},
		},
		{
			{-0.084515f,-0.006529f,-0.063327f,},
			{-0.201782f,-0.123243f,-0.088300f,},
			{-0.172575f,-0.188316f,-0.042153f,},
		},
		{
			{0.095930f,0.081209f,0.053358f,},
			{0.039335f,0.030700f,0.056943f,},
			{-0.045124f,0.006601f,0.067526f,},
		},
		{
			{-0.174250f,0.166776f,-0.055866f,},
			{-0.200331f,0.071660f,-0.018812f,},
			{-0.128947f,0.357894f,0.006290f,},
		},
		{
			{-0.147476f,-0.083292f,0.032518f,},
			{-0.070669f,-0.126872f,0.078363f,},
			{0.150648f,-0.039922f,0.009443f,},
		},
		{
			{0.097250f,0.126442f,-0.047910f,},
			{-0.065266f,0.095654f,0.041883f,},
			{-0.157686f,0.085521f,-0.100748f,},
		},
		{
			{0.094324f,0.085643f,0.027812f,},
			{0.051822f,0.159683f,0.032737f,},
			{-0.294456f,-0.026508f,-0.030000f,},
		},
		{
			{-0.139778f,-0.006913f,0.033433f,},
			{0.116274f,0.214546f,0.032953f,},
			{-0.178890f,-0.000210f,0.002548f,},
		},
		{
			{-0.032111f,-0.134219f,-0.038361f,},
			{0.038110f,-0.070783f,0.062838f,},
			{0.071949f,0.001163f,0.068473f,},
		},
		{
			{0.068119f,0.019235f,-0.043115f,},
			{-0.026934f,0.009917f,-0.000241f,},
			{-0.091143f,-0.143167f,0.057086f,},
		},
	},
	{
		{
			{-0.375872f,0.403010f,-0.156313f,},
			{-0.165689f,0.674874f,0.165495f,},
			{-0.166817f,0.036153f,0.007447f,},
		},
		{
			{0.043120f,0.128852f,-0.101230f,},
			{0.045942f,0.105865f,-0.245967f,},
			{-0.049077f,-0.150916f,-0.063391f,},
		},
		{
			{-0.036732f,0.159005f,-0.018782f,},
			{-0.100800f,0.257333f,0.281330f,},
			{-0.033078f,-0.017826f,0.062066f,},
		},
		{
			{0.020252f,-0.094189f,0.010813f,},
			{0.055169f,-0.029439f,-0.134988f,},
			{0.046190f,0.137338f,0.112867f,},
		},
		{
			{-0.173042f,-0.173263f,-0.276012f,},
			{-0.071514f,0.140765f,0.078036f,},
			{-0.043887f,-0.038890f,-0.255292f,},
		},
		{
			{-0.055395f,0.014589f,0.023619f,},
			{-0.062303f,-0.023403f,0.099287f,},
			{-0.057674f,-0.048626f,-0.115068f,},
		},
		{
			{0.043262f,-0.150773f,0.126556f,},
			{0.089001f,-0.232841f,-0.427195f,},
			{-0.032882f,0.447833f,-0.003887f,},
		},
		{
			{0.018936f,-0.138474f,0.010744f,},
			{0.032095f,0.025137f,0.001001f,},
			{-0.056409f,-0.006202f,0.268767f,},
		},
		{
			{0.181170f,-0.167102f,-0.081303f,},
			{0.451188f,0.071761f,-0.357520f,},
			{0.090068f,0.485186f,0.183797f,},
		},
		{
			{0.031454f,-0.040889f,-0.000416f,},
			{0.005958f,0.085524f,-0.065603f,},
			{0.032709f,0.094101f,-0.138037f,},
		},
		{
			{0.049417f,0.048122f,-0.162887f,},
			{-0.083754f,0.014866f,0.062119f,},
			{0.003748f,-0.080381f,0.015572f,},
		},
		{
			{0.027304f,0.103476f,-0.094590f,},
			{-0.009513f,0.250060f,0.200101f,},
			{0.093754f,-0.351319f,0.503673f,},
		},
		{
			{0.002888f,0.116328f,-0.009539f,},
			{-0.081489f,0.099426f,0.109648f,},
			{-0.056673f,-0.036642f,0.072323f,},
		},
		{
			{-0.117632f,0.182245f,0.037515f,},
			{-0.122100f,0.036320f,0.011935f,},
			{-0.104008f,-0.111868f,-0.323783f,},
		},
		{
			{0.049728f,-0.180522f,0.016634f,},
			{0.106813f,-0.227521f,-0.309588f,},
			{0.112703f,-0.008870f,-0.017964f,},
		},
		{
			{0.079314f,-0.025148f,0.030083f,},
			{0.237204f,0.034105f,-0.298192f,},
			{-0.090250f,0.010467f,0.091322f,},
		},
		{
			{-0.002808f,0.076414f,0.096858f,},
			{-0.064601f,0.092215f,0.102065f,},
			{-0.124293f,-0.058192f,-0.034664f,},
		},
		{
			{0.033262f,-0.075724f,0.119021f,},
			{-0.138531f,0.003156f,0.053762f,},
			{0.038843f,0.000682f,0.016047f,},
		},
		{
			{-0.057496f,0.208956f,0.101588f,},
			{-0.391203f,-0.215275f,0.454469f,},
			{0.081370f,-0.513447f,-0.245782f,},
		},
		{
			{-0.044279f,-0.337840f,0.144010f,},
			{0.119466f,-0.210787f,-0.248601f,},
			{-0.091031f,0.503579f,-0.160841f,},
		},
		{
			{0.112757f,0.312933f,-0.169847f,},
			{0.039188f,0.311385f,-0.079681f,},
			{0.026451f,-0.024948f,0.101664f,},
		},
		{
			{-0.006830f,0.136288f,-0.078657f,},
			{-0.113350f,0.538423f,-0.135415f,},
			{-0.181752f,0.438068f,0.227505f,},
		},
		{
			{0.134369f,-0.157423f,-0.217954f,},
			{-0.156984f,0.100007f,-0.140800f,},
			{0.115139f,-0.039848f,0.070027f,},
		},
		{
			{-0.033337f,0.077040f,-0.072547f,},
			{0.051260f,0.084997f,0.120999f,},
			{-0.025388f,-0.161501f,-0.089880f,},
		},
		{
			{-0.000916f,0.047179f,0.098291f,},
			{-0.028871f,-0.000434f,0.027450f,},
			{-0.019509f,-0.035517f,0.009261f,},
		},
		{
			{0.033821f,0.241036f,0.148255f,},
			{-0.178586f,0.170965f,0.226284f,},
			{-0.073994f,-0.239634f,0.041623f,},
		},
		{
			{0.093908f,-0.100627f,0.108036f,},
			{0.021257f,-0.312238f,-0.042738f,},
			{0.009551f,-0.077416f,-0.009361f,},
		},
		{
			{-0.036555f,0.274794f,-0.285830f,},
			{-0.131230f,0.401126f,0.233088f,},
			{0.107585f,-0.349374f,-0.280307f,},
		},
		{
			{-0.001589f,0.233846f,0.169140f,},
			{-0.208889f,-0.010871f,0.156894f,},
			{-0.083523f,-0.314225f,-0.272696f,},
		},
		{
			{-0.058012f,0.024869f,-0.036874f,},
			{-0.108306f,0.000606f,0.109809f,},
			{0.042126f,-0.081516f,-0.187635f,},
		},
		{
			{0.114088f,-0.051847f,0.091032f,},
			{-0.064160f,-0.283522f,-0.021905f,},
			{-0.022938f,0.017263f,-0.037239f,},
		},
		{
			{0.076336f,-0.077421f,0.005060f,},
			{0.131071f,-0.059346f,0.012884f,},
			{0.033987f,0.052711f,0.026288f,},
		},
	},
	{
		{
			{-0.142611f,0.010603f,0.096212f,},
			{-0.128456f,-0.181272f,-0.059738f,},
			{-0.090864f,-0.280044f,-0.067332f,},
		},
		{
			{0.093833f,-0.187907f,-0.139032f,},
			{0.333632f,0.285848f,0.293380f,},
			{-0.253799f,-0.173244f,-0.055979f,},
		},
		{
			{0.136232f,0.175774f,0.095598f,},
			{-0.074256f,0.047780f,0.142446f,},
			{0.016856f,-0.058997f,0.042748f,},
		},
		{
			{0.128827f,0.175306f,0.262007f,},
			{-0.032304f,0.035053f,0.131637f,},
			{0.097344f,0.007088f,0.057865f,},
		},
		{
			{-0.119972f,0.307702f,0.467461f,},
			{-0.577215f,-0.604702f,-0.401529f,},
			{0.174346f,0.041240f,-0.099759f,},
		},
		{
			{-0.008605f,0.076429f,0.153419f,},
			{-0.090984f,-0.040821f,0.046611f,},
			{-0.021060f,-0.056484f,0.013312f,},
		},
		{
			{-0.044210f,-0.297253f,-0.238401f,},
			{0.248200f,-0.220816f,-0.369379f,},
			{-0.206129f,0.174914f,-0.048433f,},
		},
		{
			{-0.042312f,0.108502f,-0.071066f,},
			{-0.084908f,0.057178f,-0.185865f,},
			{-0.002327f,0.247470f,-0.170469f,},
		},
		{
			{0.014795f,0.332386f,0.054978f,},
			{-0.222501f,0.224650f,0.040652f,},
			{-0.118868f,0.020697f,-0.004222f,},
		},
		{
			{-0.113501f,-0.085639f,-0.063996f,},
			{0.064999f,-0.064541f,0.017539f,},
			{0.117049f,0.036405f,-0.044160f,},
		},
		{
			{-0.112496f,-0.154528f,0.010992f,},
			{-0.171774f,-0.201352f,-0.188242f,},
			{-0.023916f,0.091807f,0.080268f,},
		},
		{
			{-0.055828f,0.022496f,0.264992f,},
			{0.181071f,-0.028790f,0.445883f,},
			{0.181681f,-0.225247f,-0.117583f,},
		},
		{
			{0.055405f,0.092092f,0.160621f,},
			{-0.023765f,0.019750f,0.000483f,},
			{-0.016129f,0.049488f,-0.040145f,},
		},
		{
			{-0.118726f,-0.237466f,-0.314086f,},
			{0.329554f,0.202621f,-0.169699f,},
			{-0.272484f,0.161860f,-0.017096f,},
		},
		{
			{0.046587f,-0.081374f,-0.089734f,},
			{0.125276f,0.072975f,0.012109f,},
			{-0.034334f,0.066943f,-0.045984f,},
		},
		{
			{-0.062896f,-0.186873f,0.073454f,},
			{0.159859f,-0.028432f,0.287023f,},
			{-0.161979f,-0.142429f,0.162212f,},
		},
		{
			{0.070759f,0.022732f,0.059046f,},
			{0.007349f,-0.043105f,0.053201f,},
			{0.038666f,-0.018091f,0.011711f,},
		},
		{
			{0.055657f,-0.246686f,-0.136528f,},
			{0.296048f,-0.084545f,-0.067558f,},
			{0.159320f,0.036861f,0.101610f,},
		},
		{
			{0.006621f,-0.323553f,-0.033602f,},
			{0.147116f,-0.063664f,-0.037031f,},
			{0.061011f,0.002536f,0.112086f,},
		},
		{
			{0.023484f,0.171867f,-0.043412f,},
			{-0.096911f,-0.028335f,0.002660f,},
			{0.200132f,-0.072014f,0.070185f,},
		},
		{
			{0.100232f,0.105721f,0.034893f,},
			{-0.227719f,0.201151f,0.004892f,},
			{-0.147290f,0.115528f,-0.090133f,},
		},
		{
			{0.170877f,-0.159380f,-0.206608f,},
			{0.349610f,0.484005f,0.253495f,},
			{-0.271172f,-0.077682f,0.148146f,},
		},
		{
			{-0.010831f,-0.727786f,0.001306f,},
			{0.412599f,-0.530920f,-0.210779f,},
			{-0.152191f,0.193799f,-0.008637f,},
		},
		{
			{-0.048940f,0.246263f,0.297942f,},
			{-0.304109f,-0.002983f,0.139714f,},
			{-0.021106f,-0.037101f,0.052846f,},
		},
		{
			{0.065037f,0.111140f,0.160400f,},
			{-0.076670f,0.016916f,0.067273f,},
			{-0.028097f,0.014878f,-0.046422f,},
		},
		{
			{-0.111582f,0.078694f,-0.059644f,},
			{-0.137217f,-0.157226f,-0.214162f,},
			{0.109471f,0.096160f,-0.082391f,},
		},
		{
			{-0.115000f,-0.029564f,-0.000133f,},
			{-0.069036f,-0.104780f,-0.032769f,},
			{0.073572f,0.029513f,0.093678f,},
		},
		{
			{0.114793f,0.171037f,0.054807f,},
			{-0.151842f,0.096360f,-0.088854f,},
			{-0.007350f,-0.132947f,-0.081270f,},
		},
		{
			{0.120399f,-0.028774f,-0.179798f,},
			{0.111242f,0.131852f,-0.009173f,},
			{0.020196f,0.026638f,0.020207f,},
		},
		{
			{0.108591f,0.008780f,-0.247495f,},
			{0.031300f,0.229654f,-0.006839f,},
			{0.058609f,0.112989f,-0.084419f,},
		},
		{
			{0.112035f,-0.189147f,-0.178308f,},
			{0.031570f,-0.014719f,-0.056598f,},
			{-0.054469f,0.038138f,0.055820f,},
		},
		{
			{0.021416f,0.147497f,0.114360f,},
			{-0.175415f,0.083639f,0.221792f,},
			{-0.081824f,-0.076281f,0.023776f,},
		},
	},
	{
		{
			{-0.048643f,-0.300283f,-0.330373f,},
			{0.061160f,0.474098f,0.110663f,},
			{-0.209204f,0.188413f,-0.301626f,},
		},
		{
			{-0.212835f,-0.052074f,-0.019490f,},
			{0.067551f,0.030825f,0.233859f,},
			{0.067318f,-0.085288f,0.110776f,},
		},
		{
			{0.039664f,-0.072874f,0.083318f,},
			{0.182000f,-0.176872f,0.090812f,},
			{0.047104f,-0.023026f,0.127347f,},
		},
		{
			{-0.019238f,0.021895f,0.025008f,},
			{0.027884f,-0.028353f,0.053561f,},
			{-0.047957f,0.084861f,0.115202f,},
		},
		{
			{0.245450f,-0.026688f,0.020739f,},
			{0.104404f,-0.003433f,-0.188183f,},
			{-0.110547f,0.183473f,0.063615f,},
		},
		{
			{0.102953f,-0.039831f,-0.001119f,},
			{0.134759f,-0.120492f,-0.071885f,},
			{0.008128f,0.051940f,0.025175f,},
		},
		{
			{0.003709f,0.242269f,-0.338668f,},
			{-0.329070f,0.594027f,-0.587404f,},
			{0.066966f,0.094579f,-0.241683f,},
		},
		{
			{0.151508f,0.127997f,-0.073242f,},
			{-0.010137f,-0.207050f,-0.233823f,},
			{0.066972f,0.056667f,-0.006569f,},
		},
		{
			{-0.105888f,0.105915f,-0.125955f,},
			{-0.099909f,-0.062972f,0.003014f,},
			{-0.026965f,-0.030681f,0.004608f,},
		},
		{
			{-0.057274f,0.018938f,-0.012287f,},
			{-0.052680f,0.000853f,0.002710f,},
			{0.061653f,-0.014006f,0.017703f,},
		},
		{
			{0.287096f,0.057512f,0.063590f,},
			{0.115443f,-0.162777f,-0.269295f,},
			{-0.026368f,0.076945f,-0.153106f,},
		},
		{
			{0.269528f,-0.405124f,0.501458f,},
			{0.392817f,-0.764657f,0.390897f,},
			{-0.245352f,0.268091f,-0.152742f,},
		},
		{
			{-0.022603f,-0.112150f,-0.020914f,},
			{0.019135f,-0.139811f,-0.086629f,},
			{0.017334f,0.014861f,-0.019109f,},
		},
		{
			{-0.043977f,0.116780f,-0.363409f,},
			{-0.308513f,0.776364f,-0.339212f,},
			{0.204762f,-0.187180f,-0.282646f,},
		},
		{
			{-0.085218f,0.229476f,-0.066176f,},
			{-0.163708f,0.241583f,-0.216187f,},
			{0.005813f,0.012391f,0.016509f,},
		},
		{
			{-0.222216f,-0.098178f,0.167771f,},
			{0.176789f,-0.013555f,0.195817f,},
			{0.198092f,-0.348542f,-0.030929f,},
		},
		{
			{-0.026482f,-0.064054f,-0.065515f,},
			{0.033372f,-0.094749f,-0.032876f,},
			{0.042412f,-0.028740f,-0.006847f,},
		},
		{
			{-0.094367f,0.101447f,-0.003688f,},
			{-0.154626f,0.243283f,0.194152f,},
			{0.065428f,-0.019860f,0.107940f,},
		},
		{
			{0.047894f,-0.040081f,-0.018466f,},
			{-0.108657f,-0.025175f,0.278993f,},
			{-0.050289f,-0.060001f,-0.001986f,},
		},
		{
			{-0.029168f,-0.102535f,-0.002490f,},
			{0.015046f,0.124488f,-0.138674f,},
			{-0.041060f,0.300056f,-0.107743f,},
		},
		{
			{0.207620f,-0.164437f,0.354644f,},
			{0.302604f,-0.613515f,0.253260f,},
			{0.034308f,-0.055440f,0.074968f,},
		},
		{
			{-0.357275f,0.027404f,-0.210267f,},
			{-0.045164f,0.211129f,0.343785f,},
			{0.213679f,-0.399562f,0.314931f,},
		},
		{
			{0.083722f,0.130930f,-0.191006f,},
			{-0.155915f,0.369618f,-0.555609f,},
			{0.000677f,0.034588f,0.182909f,},
		},
		{
			{0.087400f,-0.077904f,0.144928f,},
			{0.171175f,-0.246137f,0.126165f,},
			{0.079458f,-0.089550f,-0.018741f,},
		},
		{
			{0.017115f,0.005550f,0.032698f,},
			{0.061343f,-0.074001f,-0.071309f,},
			{0.019176f,-0.026645f,0.014566f,},
		},
		{
			{-0.016574f,0.016213f,-0.045591f,},
			{-0.087330f,-0.266792f,0.044619f,},
			{0.033556f,-0.120989f,0.023131f,},
		},
		{
			{0.215156f,0.120601f,0.091682f,},
			{-0.082434f,-0.048436f,-0.217784f,},
			{-0.082362f,0.240912f,-0.080311f,},
		},
		{
			{-0.059960f,-0.351957f,0.118584f,},
			{0.256365f,-0.350675f,0.313145f,},
			{-0.016219f,0.333237f,-0.197439f,},
		},
		{
			{-0.078488f,-0.072028f,-0.088539f,},
